elements: [C, Cs, Si]
E0: [0, 0, 0]
deltaSplineBins: 0.001
embeddings:
  0: {ndensity: 2, FS_parameters: [1, 1, 1, 0.5], npoti: FinnisSinclairShiftedScaled, rho_core_cutoff: 1, drho_core_cutoff: 1}
  1: {ndensity: 2, FS_parameters: [1, 1, 1, 0.5], npoti: FinnisSinclairShiftedScaled, rho_core_cutoff: 1, drho_core_cutoff: 1}
  2: {ndensity: 2, FS_parameters: [1, 1, 1, 0.5], npoti: FinnisSinclairShiftedScaled, rho_core_cutoff: 1, drho_core_cutoff: 1}
bonds:
  [0, 0]: {nradmax: 6, lmax: 3, nradbasemax: 9, radbasename: SBessel, radparameters: [5.25], radcoefficients: [[[1.1484294620070481, -1.2055307746893471, 0.83018044115395739, -0.44820099563777754, 0.26258882081620721, -0.18362089815131385, 0.11798136555075595, -0.057911694433320858, 0.026602428106814981], [1.9684145916339488, -1.6299257509761547, 0.84358453399961242, -0.1553790387910004, -0.022449946932971469, -0.048963923493929674, 0.098162905365434247, -0.11648960788723581, 0.04236962287719568], [2.2449502055150301, -1.5671819379778755, 0.44903304865125204, 0.47488858400649903, -0.3668627337247502, -0.10004525855416524, 0.11187180734549947, -0.080310049572830097, 0.026020213025396678], [2.5082096360139832, -1.2439305694516467, -0.14071041624167469, 1.0678206518893647, -0.9134030043338851, 0.46359513363740523, -0.53756654320911179, 0.37811206805156189, -0.10577919623350263]], [[-0.12002855975929318, 0.020234125875753836, 0.11106776898180142, 0.10949258367298534, -0.46728184145556073, 0.65319347209577283, -0.44556588743689929, 0.19638851144728789, -0.091630393575734312], [-1.7901562835580094, 1.9656136466564722, -1.801289966791729, 1.2351192349637847, -0.71792259937882075, 0.45744708890034524, -0.32617628749615396, 0.18585185169292273, -0.1546533217209384], [1.0672268640307525, 0.98334779948186213, -2.9467103686603275, 3.2007410736117534, -1.3579580664525668, -0.34382088650702752, 0.74424775514933428, -0.87128524551935904, 0.1854598557509248], [0, 1, 0, 0, 0, 0, 0, 0, 0]], [[1.3559292894888939, -1.7792260441372831, 1.3901471141158832, -0.67223527922579718, -0.1833870675074471, 0.98985877165944236, -0.90875952636521951, 0.38962751610253421, -0.17245019092954833], [0.19801440289425018, -1.9827067813408885, 0.84828237180769217, -0.74956695479743085, 0.19752092420261194, 1.875136759520595, -1.3545997223647162, -0.70634934297860719, 0.38366156817102653], [0.68628234339102867, 0.25609529120664359, -0.68204619967586755, 1.2248664141956276, -2.7971164782978919, 2.1857008713819419, 0.41870554915302449, -1.3206101618342796, 0.36514940565109727], [0, 0, 1, 0, 0, 0, 0, 0, 0]], [[2.7873888535457314, -2.4735685958566984, 1.4914956316296022, -0.1913719007794904, -0.22413387328805734, -0.21078012739464022, 0.4746437992460395, -0.1814938344938177, 0.067602298916101811], [0.9619518768813391, 0.50771268485589538, -1.4029813703431966, 0.60573301204801666, 1.2282670747161168, -0.64124695770517726, -0.15512214807558122, -0.39283779214765668, 0.015069186989371096], [0, 0, 0, 1, 0, 0, 0, 0, 0], [0, 0, 0, 1, 0, 0, 0, 0, 0]], [[-0.12294161022079428, 2.4292475177650266, 0.84357890003576397, -2.424395591752496, 1.8749623903005466, 0.083790010171306786, 0.05579836493233982, -0.10552779972096413, -0.050327477364346868], [-0.65256410089539685, -0.82338160106518998, -0.018657458719564528, -0.018839566308753393, 1.3814708907993003, -0.058364349950527673, -0.7382750390302979, -0.50331694658679049, 0.50700218724108115], [0, 0, 0, 0, 1, 0, 0, 0, 0], [0, 0, 0, 0, 1, 0, 0, 0, 0]], [[1.428923131658995, -0.55526357660149817, -1.4105263348957511, 0.35538367294359263, -0.35890189520554289, 1.0166756106465848, -0.46138889788780585, -0.83009311443914147, 0.55742732227919567], [0, 0, 0, 0, 0, 1, 0, 0, 0], [0, 0, 0, 0, 0, 1, 0, 0, 0], [0, 0, 0, 0, 0, 1, 0, 0, 0]]], prehc: 1, lambdahc: 1, rcut: 5.5, dcut: 0.01, rcut_in: 0.84827384310728215, dcut_in: 0.10000000000000001, inner_cutoff_type: zbl}
  [0, 1]: {nradmax: 5, lmax: 2, nradbasemax: 7, radbasename: SBessel, radparameters: [5.25], radcoefficients: [[[1.3836900958065461, -1.2719967392877354, 0.97242784075499877, -0.48819912558676876, 0.19878020694736201, -0.067829738097988521, 0.0084397963722914783], [1.0896293440678033, -0.035213026683157234, -0.0064328406130850588, 0.32935256795718038, -0.24775254458917714, 0.0080927732456370065, 0.010364132676476793], [0.87819767795378134, 0.17641579090249354, 0.98223195187128587, 0.11039555663647149, -0.75724570288968907, 0.52539159112333655, -0.26199318920034098]], [[-0.037725050929519839, 0.88145813773427095, -0.30724882852046048, 0.37975025945662394, 0.10959557393316775, -0.12421566690621619, 0.12073183005990284], [0.22574820335326912, 0.9835527856673324, -0.19930600456900768, 0.31324545998877956, -0.0035598433195089497, 0.048834525676241046, -0.02801379732805789], [0, 1, 0, 0, 0, 0, 0]], [[-0.074529814397066282, -0.26193208850072702, 0.77049581377836296, -0.32445297344957358, -0.12407335149650374, 0.068962512479944199, 0.011686589327336122], [0.3582899154220307, -0.010387641481025441, 0.82965628148730208, 0.11724300879453298, -0.072892444461479231, 0.079185659657494967, -0.77498098371297852], [0, 0, 1, 0, 0, 0, 0]], [[0.26162499091777086, 0.10293470453250854, -0.084456653406986895, 0.9825744000454929, 0.0058141209654435115, -0.13833979960186102, 0.14336020623802842], [0, 0, 0, 1, 0, 0, 0], [0, 0, 0, 1, 0, 0, 0]], [[0.020142293475017295, 0.0005385365367999085, -0.1758018915435906, -0.30571729168574424, 0.8295471072228644, 0.048430659633209111, 0.2126889650289297], [0, 0, 0, 0, 1, 0, 0], [0, 0, 0, 0, 1, 0, 0]]], prehc: 1, lambdahc: 1, rcut: 5.5, dcut: 0.01, rcut_in: 1.6474506523717183, dcut_in: 0.10000000000000001, inner_cutoff_type: zbl}
  [0, 2]: {nradmax: 5, lmax: 2, nradbasemax: 7, radbasename: SBessel, radparameters: [5.25], radcoefficients: [[[1.4554139182877257, -0.78168623071675947, 0.021653169106926624, 0.14907551397383384, -0.031293559993828476, 0.0082414235047610432, -0.0082529156920410317], [1.3915961313321541, -1.2647427088933407, 1.0359134150014822, -0.70387621834950165, 0.44831266925030139, -0.27780105078732703, 0.11635573898919686], [2.1549022718450948, -0.42228124206721379, -0.73185990545233204, 0.84709093726261153, -0.15761282046276298, -0.24395021373562928, 0.14489078462216756]], [[1.2516379974389276, -0.51447856479396836, 0.61851868912876184, -0.83612431203047644, 0.83322234631565606, -0.47780137528739303, 0.18245674830328679], [0.94368612470006885, 0.53945619490737529, -0.85118487331149983, 0.76939641363232047, -0.21231881278881612, -0.035654976836280244, 0.020561505921325007], [0, 1, 0, 0, 0, 0, 0]], [[0.41605122401137679, -0.3713396772752186, 0.39122419696590671, -0.45371977800387697, 0.32557799318236957, -0.11802556089055261, 0.043023330577049657], [-1.5856216960114864, -0.40877136648053131, 1.1195608506204162, -1.1423331922046867, 0.41382820741822485, 0.0078175427606034433, -0.033360283271950418], [0, 0, 1, 0, 0, 0, 0]], [[2.6430603506640402, -0.91206984156786441, -1.5156654030573233, 1.9226763511439471, -1.1501501732582085, 0.52467983715220623, -0.20882150885223583], [0, 0, 0, 1, 0, 0, 0], [0, 0, 0, 1, 0, 0, 0]], [[2.3103178240987496, -0.78533576231160263, 0.34301190365610262, -0.44954101353143289, 0.81932576129328705, -0.72990171049523889, 0.32160139642725527], [0, 0, 0, 0, 1, 0, 0], [0, 0, 0, 0, 1, 0, 0]]], prehc: 1, lambdahc: 1, rcut: 5.5, dcut: 0.01, rcut_in: 0.80695154730627983, dcut_in: 0.10000000000000001, inner_cutoff_type: zbl}
  [1, 0]: {nradmax: 5, lmax: 2, nradbasemax: 7, radbasename: SBessel, radparameters: [5.25], radcoefficients: [[[1.3836900958065461, -1.2719967392877354, 0.97242784075499877, -0.48819912558676876, 0.19878020694736201, -0.067829738097988521, 0.0084397963722914783], [1.0896293440678033, -0.035213026683157234, -0.0064328406130850588, 0.32935256795718038, -0.24775254458917714, 0.0080927732456370065, 0.010364132676476793], [0.87819767795378134, 0.17641579090249354, 0.98223195187128587, 0.11039555663647149, -0.75724570288968907, 0.52539159112333655, -0.26199318920034098]], [[-0.037725050929519839, 0.88145813773427095, -0.30724882852046048, 0.37975025945662394, 0.10959557393316775, -0.12421566690621619, 0.12073183005990284], [0.22574820335326912, 0.9835527856673324, -0.19930600456900768, 0.31324545998877956, -0.0035598433195089497, 0.048834525676241046, -0.02801379732805789], [0, 1, 0, 0, 0, 0, 0]], [[-0.074529814397066282, -0.26193208850072702, 0.77049581377836296, -0.32445297344957358, -0.12407335149650374, 0.068962512479944199, 0.011686589327336122], [0.3582899154220307, -0.010387641481025441, 0.82965628148730208, 0.11724300879453298, -0.072892444461479231, 0.079185659657494967, -0.77498098371297852], [0, 0, 1, 0, 0, 0, 0]], [[0.26162499091777086, 0.10293470453250854, -0.084456653406986895, 0.9825744000454929, 0.0058141209654435115, -0.13833979960186102, 0.14336020623802842], [0, 0, 0, 1, 0, 0, 0], [0, 0, 0, 1, 0, 0, 0]], [[0.020142293475017295, 0.0005385365367999085, -0.1758018915435906, -0.30571729168574424, 0.8295471072228644, 0.048430659633209111, 0.2126889650289297], [0, 0, 0, 0, 1, 0, 0], [0, 0, 0, 0, 1, 0, 0]]], prehc: 1, lambdahc: 1, rcut: 5.5, dcut: 0.01, rcut_in: 1.6474506523717183, dcut_in: 0.10000000000000001, inner_cutoff_type: zbl}
  [1, 1]: {nradmax: 6, lmax: 3, nradbasemax: 9, radbasename: SBessel, radparameters: [5.25], radcoefficients: [[[1.2808420625155241, -0.34836638685279309, -0.44861140533226812, 0.54118685984407555, 0.1398839355106756, -0.60379153061793001, 0.30337578000032961, 0.1292223962464632, -0.44572983607184707], [1.280016882431781, 0.25441230321043462, 0.031854719047679836, 0.14523683274771829, 0.24007153304347303, -0.010364964191187025, -0.090430487179833194, 0.048026903667155833, 0.051533657819742826], [1.1315075223893849, 0.061047766834862231, 0.01165636500638564, 0.18682093498472635, 0.041131322908643096, -0.30126520129473294, -0.046564522297781151, 0.24121270458861774, -0.22389513392253499], [1.0464925609562301, 0.014759942358180947, -0.054283094859700141, -0.033170911188502225, 0.017791577543709327, 0.033385626134642972, 0.034040261794938652, -0.035426174528558785, -0.079609177847979176]], [[0.067980377159459218, 1.1546102972185133, -0.057998119332490196, -0.17878897533879326, 0.11386181508237345, -0.076334032504173824, -0.3994978227986587, 0.15064984361197539, -0.17237104408352924], [0.057408580748392925, 1.1250808229265454, 0.047685164969157548, -0.13789748351284531, -0.1283080693717871, 0.03965130451184775, -0.051859259049829284, -0.3005742664768834, -0.15603701389141975], [-0.0013041078633717579, 0.99828835045290554, -0.0015631365340767344, -0.00075660631973774328, 0.0022023008799036689, 0.0029569444373946712, -0.0016523132349601521, -0.0043570339215559441, -0.0006082941909760941], [0, 1, 0, 0, 0, 0, 0, 0, 0]], [[-0.36474506997283496, -0.12031028522028601, 1.241476927131542, -0.014151361075738993, -0.0065691111905839174, 0.240482618810439, 0.015009707042770885, 0.033302339541723035, -0.18531501776775622], [-0.026396485299922782, -0.02265545336730318, 1.0194608109115839, 0.058322576228214074, 0.074030011833786213, 0.043660409156150798, -0.022125838408898701, -0.038102800354569026, -0.00044714843406205536], [-0.015847455215278864, -0.0043857400886583983, 1.0171150565009779, 0.005928367625772403, -0.0066601022462891915, 0.00025374573127789294, -0.0031085222499317813, -0.0011094784899593258, 0.0089455844403945415], [0, 0, 1, 0, 0, 0, 0, 0, 0]], [[0.11610477876124586, -0.028981538546738704, -0.078761500206454713, 1.1820692784728148, 0.086046254222577792, -0.16113616355305121, 0.091318026044414982, 0.17811301396332374, -0.026221382759800307], [0.0037451825960126413, 0.0017875524544553327, 0.00054020872581584355, 1.0037537326827597, -0.0042969586751220781, -0.013778185653259983, 0.0013533981761820798, 0.01700663310715864, -0.0010870198285662489], [0, 0, 0, 1, 0, 0, 0, 0, 0], [0, 0, 0, 1, 0, 0, 0, 0, 0]], [[0.043650274794817631, 0.049459784339778178, 0.0021822415159073721, -0.010591689687832976, 1.0434289181774419, 0.087618476475939955, 0.043857668586253687, -0.047622712064206728, -0.036640751765643673], [0.0049189907693770654, 0.0020603486767640953, -0.0034900363641221632, -0.0008241319912091075, 1.0003942371323635, -0.0014581233542832269, 0.0030064212393685718, 0.00059251869718015518, -0.0097777118019690638], [0, 0, 0, 0, 1, 0, 0, 0, 0], [0, 0, 0, 0, 1, 0, 0, 0, 0]], [[-0.0044909429125032253, 0.00087046919810253147, 0.0089425379079176217, 0.0035014760330170178, -0.0040516948487232009, 0.99728545269414404, -0.0014664789521103207, 0.0014416957970570991, 0.0071410601912639668], [0, 0, 0, 0, 0, 1, 0, 0, 0], [0, 0, 0, 0, 0, 1, 0, 0, 0], [0, 0, 0, 0, 0, 1, 0, 0, 0]]], prehc: 1, lambdahc: 1, rcut: 5.5, dcut: 0.01, rcut_in: 2.264450277175456, dcut_in: 0.10000000000000001, inner_cutoff_type: zbl}
  [1, 2]: {nradmax: 5, lmax: 2, nradbasemax: 7, radbasename: SBessel, radparameters: [5.25], radcoefficients: [[[2.3001287908532149, -2.1557523914478636, 1.9801362881257247, -1.2174741936586675, 0.74682200450170044, -0.27705653896761934, 0.09779227361200088], [1.9585862450873142, -1.1108135109803852, 0.17909762589495684, 0.44493714471855772, -0.61472405844257816, 0.30631685748452325, -0.19722407089372493], [1.8642795547104141, 0.013396322801080305, -0.029013613960718072, 0.35873328882837419, 0.2382698574986446, -0.2502979725463092, 0.16175026167460263]], [[-0.35145067188573126, 1.0346604079623696, -0.26950809424965361, 0.41891784352051897, -0.017943702415722664, 0.070115644288955697, 0.041931353972690377], [-0.35773961026562456, 1.3821754057467981, -0.40183720158101033, 0.14611050952854249, 0.42607791748004253, -0.24998892983659093, 0.21762047700433967], [0, 1, 0, 0, 0, 0, 0]], [[1.0010791504674152, 0.43588758851727682, 0.7912627225390787, 0.054777286166913949, 0.5627525965279131, -0.2033547932475728, 0.19726973020893884], [0.052013984290323376, 0.18824363468518532, 0.9063321095944562, -0.46971169431194221, 0.18818913794996295, 0.44003717855291752, -0.16207239345058566], [0, 0, 1, 0, 0, 0, 0]], [[0.61736273733562552, -0.013211656399663159, -0.073292735620023877, 1.2913574146479396, -0.24315044250572154, 0.049852208202887875, 0.22082993384585317], [0, 0, 0, 1, 0, 0, 0], [0, 0, 0, 1, 0, 0, 0]], [[-0.1122509500975383, -0.012119615144775686, -0.0075264460322854686, 0.045749997231804569, 1.1163021545148872, 0.047341471884751712, 0.016499078465262579], [0, 0, 0, 0, 1, 0, 0], [0, 0, 0, 0, 1, 0, 0]]], prehc: 1, lambdahc: 1, rcut: 5.5, dcut: 0.01, rcut_in: 1.3059923701251108, dcut_in: 0.10000000000000001, inner_cutoff_type: zbl}
  [2, 0]: {nradmax: 5, lmax: 2, nradbasemax: 7, radbasename: SBessel, radparameters: [5.25], radcoefficients: [[[1.4554139182877257, -0.78168623071675947, 0.021653169106926624, 0.14907551397383384, -0.031293559993828476, 0.0082414235047610432, -0.0082529156920410317], [1.3915961313321541, -1.2647427088933407, 1.0359134150014822, -0.70387621834950165, 0.44831266925030139, -0.27780105078732703, 0.11635573898919686], [2.1549022718450948, -0.42228124206721379, -0.73185990545233204, 0.84709093726261153, -0.15761282046276298, -0.24395021373562928, 0.14489078462216756]], [[1.2516379974389276, -0.51447856479396836, 0.61851868912876184, -0.83612431203047644, 0.83322234631565606, -0.47780137528739303, 0.18245674830328679], [0.94368612470006885, 0.53945619490737529, -0.85118487331149983, 0.76939641363232047, -0.21231881278881612, -0.035654976836280244, 0.020561505921325007], [0, 1, 0, 0, 0, 0, 0]], [[0.41605122401137679, -0.3713396772752186, 0.39122419696590671, -0.45371977800387697, 0.32557799318236957, -0.11802556089055261, 0.043023330577049657], [-1.5856216960114864, -0.40877136648053131, 1.1195608506204162, -1.1423331922046867, 0.41382820741822485, 0.0078175427606034433, -0.033360283271950418], [0, 0, 1, 0, 0, 0, 0]], [[2.6430603506640402, -0.91206984156786441, -1.5156654030573233, 1.9226763511439471, -1.1501501732582085, 0.52467983715220623, -0.20882150885223583], [0, 0, 0, 1, 0, 0, 0], [0, 0, 0, 1, 0, 0, 0]], [[2.3103178240987496, -0.78533576231160263, 0.34301190365610262, -0.44954101353143289, 0.81932576129328705, -0.72990171049523889, 0.32160139642725527], [0, 0, 0, 0, 1, 0, 0], [0, 0, 0, 0, 1, 0, 0]]], prehc: 1, lambdahc: 1, rcut: 5.5, dcut: 0.01, rcut_in: 0.80695154730627983, dcut_in: 0.10000000000000001, inner_cutoff_type: zbl}
  [2, 1]: {nradmax: 5, lmax: 2, nradbasemax: 7, radbasename: SBessel, radparameters: [5.25], radcoefficients: [[[2.3001287908532149, -2.1557523914478636, 1.9801362881257247, -1.2174741936586675, 0.74682200450170044, -0.27705653896761934, 0.09779227361200088], [1.9585862450873142, -1.1108135109803852, 0.17909762589495684, 0.44493714471855772, -0.61472405844257816, 0.30631685748452325, -0.19722407089372493], [1.8642795547104141, 0.013396322801080305, -0.029013613960718072, 0.35873328882837419, 0.2382698574986446, -0.2502979725463092, 0.16175026167460263]], [[-0.35145067188573126, 1.0346604079623696, -0.26950809424965361, 0.41891784352051897, -0.017943702415722664, 0.070115644288955697, 0.041931353972690377], [-0.35773961026562456, 1.3821754057467981, -0.40183720158101033, 0.14611050952854249, 0.42607791748004253, -0.24998892983659093, 0.21762047700433967], [0, 1, 0, 0, 0, 0, 0]], [[1.0010791504674152, 0.43588758851727682, 0.7912627225390787, 0.054777286166913949, 0.5627525965279131, -0.2033547932475728, 0.19726973020893884], [0.052013984290323376, 0.18824363468518532, 0.9063321095944562, -0.46971169431194221, 0.18818913794996295, 0.44003717855291752, -0.16207239345058566], [0, 0, 1, 0, 0, 0, 0]], [[0.61736273733562552, -0.013211656399663159, -0.073292735620023877, 1.2913574146479396, -0.24315044250572154, 0.049852208202887875, 0.22082993384585317], [0, 0, 0, 1, 0, 0, 0], [0, 0, 0, 1, 0, 0, 0]], [[-0.1122509500975383, -0.012119615144775686, -0.0075264460322854686, 0.045749997231804569, 1.1163021545148872, 0.047341471884751712, 0.016499078465262579], [0, 0, 0, 0, 1, 0, 0], [0, 0, 0, 0, 1, 0, 0]]], prehc: 1, lambdahc: 1, rcut: 5.5, dcut: 0.01, rcut_in: 1.3059923701251108, dcut_in: 0.10000000000000001, inner_cutoff_type: zbl}
  [2, 2]: {nradmax: 6, lmax: 3, nradbasemax: 9, radbasename: SBessel, radparameters: [5.25], radcoefficients: [[[0.97056337683311134, -0.37490831822407034, 0.43479830223072907, -0.16464833189745987, 0.043169709726183274, 0.10019140460315365, -0.060686662329020646, 0.014282793459862997, 0.0045236624019761064], [1.3046443604620188, -0.075129729127293141, -0.56986707507956125, 0.51371652917040522, -0.14572814614714305, 0.057170498544444392, -0.07693322297064184, 0.056780283505320446, -0.045483623178771221], [1.7458342236148632, -0.066677922683340135, -0.41841097622414347, -0.12908963862661391, 0.80054612585042684, -0.73903418782462216, 0.37729694758887666, -0.10345370609451188, -0.0059430705414331647], [0.59097792552393125, 0.38608944094236719, 0.0099917124915961698, -0.34949645172968036, 0.27316075685142377, -0.41023980284261108, -0.31573623310190091, 0.54000869550623354, 0.07189705939398694]], [[-0.017812510373065513, 0.88084764168402274, 0.34695454937729592, 0.25365014214170861, -0.40053963804299536, 0.53567662537539273, -0.14332259580263612, 0.033366369803720118, -0.018435392962380316], [-0.397694517974299, 0.46418843313885111, -0.32434343630461482, 0.14626364685779006, 0.17849285299032494, -0.31415259815899194, 0.20144705178895456, -0.037681175291881551, 0.014621596908136473], [-0.03278865518353468, 1.1740074932194691, -1.2233565458547684, 0.52847432211972911, 0.24406939993134141, -0.53585035265899317, 0.41117923636710846, -0.2591073995988844, 0.087637388809102476], [0, 1, 0, 0, 0, 0, 0, 0, 0]], [[1.3896021750515297, -0.94386527137902421, 1.523560005206489, -0.88823596055569609, 0.45858612223265111, -0.044171798127440653, 0.074145026434402184, -0.07085277365532161, 0.013756902835264236], [0.4539823309593406, 0.27563844534014265, 1.0685870581578152, -0.36898888093473009, 0.68694314534137368, -0.1484452788727337, 0.16459863539294056, 0.10447484894757111, -0.2074247199816239], [-0.15198084201385514, -0.65648039879276121, 0.80496230100271493, 0.18552691252181611, -0.40678520757210684, -0.25935662090497541, 0.331371146939479, -0.015430006249130008, -0.40093144514582885], [0, 0, 1, 0, 0, 0, 0, 0, 0]], [[1.8973977854356274, -0.056998030038417941, -0.96116285693743686, 0.81976604569697953, -0.50460205738117581, 0.30876924053283289, -0.28096727263678034, 0.061644378287341282, 0.099158287492196934], [0.22262219123743698, 0.2516352031712521, -0.031921777974627183, 0.81940826187208782, -0.092028078996582247, 0.4667702996134237, 0.12361514996203343, -0.33853207142181413, -0.15281640240436548], [0, 0, 0, 1, 0, 0, 0, 0, 0], [0, 0, 0, 1, 0, 0, 0, 0, 0]], [[0.89903025905539224, -0.32807013730889145, -0.7670794726287663, -0.077142168010550946, 0.44945638953938249, -0.68838132534836938, 0.26316895435256282, -0.18541510137686881, 0.19565815797195449], [0.15280036014075168, 0.095825743382994946, -0.21083590144472997, -0.23608719505664677, 0.9930966867710862, -0.15686967490842696, -0.039809024831320206, -0.24609631808765886, -0.13538665050756701], [0, 0, 0, 0, 1, 0, 0, 0, 0], [0, 0, 0, 0, 1, 0, 0, 0, 0]], [[0.34804094139399228, 0.74855194929744828, 0.73610876579473128, -0.3696498756401731, -0.67477454022610617, 1.0312655172166882, -0.56475730641686495, -0.18847932124230118, 0.051294716239115495], [0, 0, 0, 0, 0, 1, 0, 0, 0], [0, 0, 0, 0, 0, 1, 0, 0, 0], [0, 0, 0, 0, 0, 1, 0, 0, 0]]], prehc: 1, lambdahc: 1, rcut: 5.5, dcut: 0.01, rcut_in: 0.79278796206804258, dcut_in: 0.10000000000000001, inner_cutoff_type: zbl}
functions:
  0:
    - {mu0: 0, rank: 1, ndensity: 2, num_ms_combs: 1, mus: [0], ns: [1], ls: [0], ms_combs: [0], ctildes: [-2.9025364494022603, -4.7814338503687193]}
    - {mu0: 0, rank: 1, ndensity: 2, num_ms_combs: 1, mus: [0], ns: [2], ls: [0], ms_combs: [0], ctildes: [2.8720859469282467, -0.61438621059188869]}
    - {mu0: 0, rank: 1, ndensity: 2, num_ms_combs: 1, mus: [0], ns: [3], ls: [0], ms_combs: [0], ctildes: [-1.4714961203513175, 0.7176957807226183]}
    - {mu0: 0, rank: 1, ndensity: 2, num_ms_combs: 1, mus: [0], ns: [4], ls: [0], ms_combs: [0], ctildes: [0.19053571205023956, -2.5081883939929819]}
    - {mu0: 0, rank: 1, ndensity: 2, num_ms_combs: 1, mus: [0], ns: [5], ls: [0], ms_combs: [0], ctildes: [0.48414460624133376, -1.7466551868016047]}
    - {mu0: 0, rank: 1, ndensity: 2, num_ms_combs: 1, mus: [0], ns: [6], ls: [0], ms_combs: [0], ctildes: [0.31822713421825022, -0.76781027059245854]}
    - {mu0: 0, rank: 1, ndensity: 2, num_ms_combs: 1, mus: [0], ns: [7], ls: [0], ms_combs: [0], ctildes: [-0.66273455553623306, 0.38949476001130212]}
    - {mu0: 0, rank: 1, ndensity: 2, num_ms_combs: 1, mus: [0], ns: [8], ls: [0], ms_combs: [0], ctildes: [0.34572576693045359, 1.5550665709766922]}
    - {mu0: 0, rank: 1, ndensity: 2, num_ms_combs: 1, mus: [0], ns: [9], ls: [0], ms_combs: [0], ctildes: [-0.29918214945562921, 0.019285680260345939]}
    - {mu0: 0, rank: 1, ndensity: 2, num_ms_combs: 1, mus: [1], ns: [1], ls: [0], ms_combs: [0], ctildes: [0.31581867025795107, -0.3311663060455749]}
    - {mu0: 0, rank: 1, ndensity: 2, num_ms_combs: 1, mus: [1], ns: [2], ls: [0], ms_combs: [0], ctildes: [-0.35441746328435858, -0.63467871021360489]}
    - {mu0: 0, rank: 1, ndensity: 2, num_ms_combs: 1, mus: [1], ns: [3], ls: [0], ms_combs: [0], ctildes: [-0.3389456476017384, -0.5617305062056358]}
    - {mu0: 0, rank: 1, ndensity: 2, num_ms_combs: 1, mus: [1], ns: [4], ls: [0], ms_combs: [0], ctildes: [0.29677876031521222, -0.35641309012792916]}
    - {mu0: 0, rank: 1, ndensity: 2, num_ms_combs: 1, mus: [1], ns: [5], ls: [0], ms_combs: [0], ctildes: [-0.0019358780769708202, -0.15571790863955376]}
    - {mu0: 0, rank: 1, ndensity: 2, num_ms_combs: 1, mus: [1], ns: [6], ls: [0], ms_combs: [0], ctildes: [-0.11912005810474446, 0.093726538346768876]}
    - {mu0: 0, rank: 1, ndensity: 2, num_ms_combs: 1, mus: [1], ns: [7], ls: [0], ms_combs: [0], ctildes: [-0.034681616355717752, -0.054253629458268227]}
    - {mu0: 0, rank: 1, ndensity: 2, num_ms_combs: 1, mus: [2], ns: [1], ls: [0], ms_combs: [0], ctildes: [-1.0916648127977151, -5.6957453633465018]}
    - {mu0: 0, rank: 1, ndensity: 2, num_ms_combs: 1, mus: [2], ns: [2], ls: [0], ms_combs: [0], ctildes: [-1.0430228484835746, -3.7241062041511435]}
    - {mu0: 0, rank: 1, ndensity: 2, num_ms_combs: 1, mus: [2], ns: [3], ls: [0], ms_combs: [0], ctildes: [2.6657135483783558, 2.0667318346794978]}
    - {mu0: 0, rank: 1, ndensity: 2, num_ms_combs: 1, mus: [2], ns: [4], ls: [0], ms_combs: [0], ctildes: [-2.4812900147255514, 0.26085641046582081]}
    - {mu0: 0, rank: 1, ndensity: 2, num_ms_combs: 1, mus: [2], ns: [5], ls: [0], ms_combs: [0], ctildes: [1.0796609979653076, -0.57989724451005498]}
    - {mu0: 0, rank: 1, ndensity: 2, num_ms_combs: 1, mus: [2], ns: [6], ls: [0], ms_combs: [0], ctildes: [0.087552809191603312, -2.407630006600733]}
    - {mu0: 0, rank: 1, ndensity: 2, num_ms_combs: 1, mus: [2], ns: [7], ls: [0], ms_combs: [0], ctildes: [-0.20957430605062197, 1.4168216862037837]}
    - {mu0: 0, rank: 2, ndensity: 2, num_ms_combs: 1, mus: [0, 0], ns: [1, 1], ls: [0, 0], ms_combs: [0, 0], ctildes: [2.891249575366599, 0.31861185908110684]}
    - {mu0: 0, rank: 2, ndensity: 2, num_ms_combs: 2, mus: [0, 0], ns: [1, 1], ls: [1, 1], ms_combs: [0, 0, 1, -1], ctildes: [0.12786255417230571, -0.88799402729103982, -0.25572510834461137, 1.7759880545820792]}
    - {mu0: 0, rank: 2, ndensity: 2, num_ms_combs: 3, mus: [0, 0], ns: [1, 1], ls: [2, 2], ms_combs: [0, 0, 1, -1, 2, -2], ctildes: [0.056768870260820795, 0.16378925712921127, -0.1135377405216416, -0.3275785142584226, 0.11353774052164163, 0.32757851425842271]}
    - {mu0: 0, rank: 2, ndensity: 2, num_ms_combs: 4, mus: [0, 0], ns: [1, 1], ls: [3, 3], ms_combs: [0, 0, 1, -1, 2, -2, 3, -3], ctildes: [0.010585605342555709, -0.069457442959434415, -0.021171210685111418, 0.13891488591886883, 0.021171210685111415, -0.1389148859188688, -0.021171210685111415, 0.1389148859188688]}
    - {mu0: 0, rank: 2, ndensity: 2, num_ms_combs: 1, mus: [0, 0], ns: [1, 2], ls: [0, 0], ms_combs: [0, 0], ctildes: [-2.3094833374075767, -0.54131508798308126]}
    - {mu0: 0, rank: 2, ndensity: 2, num_ms_combs: 2, mus: [0, 0], ns: [1, 2], ls: [1, 1], ms_combs: [0, 0, 1, -1], ctildes: [0.049012112814055916, 0.140048826059158, -0.098024225628111819, -0.28009765211831594]}
    - {mu0: 0, rank: 2, ndensity: 2, num_ms_combs: 3, mus: [0, 0], ns: [1, 2], ls: [2, 2], ms_combs: [0, 0, 1, -1, 2, -2], ctildes: [-0.053384428069782018, 0.74501726529929402, 0.10676885613956405, -1.490034530598588, -0.10676885613956408, 1.4900345305985885]}
    - {mu0: 0, rank: 2, ndensity: 2, num_ms_combs: 1, mus: [0, 0], ns: [1, 3], ls: [0, 0], ms_combs: [0, 0], ctildes: [-2.2429800786779763, -0.67072093726102733]}
    - {mu0: 0, rank: 2, ndensity: 2, num_ms_combs: 2, mus: [0, 0], ns: [1, 3], ls: [1, 1], ms_combs: [0, 0, 1, -1], ctildes: [0.020876438951555731, -0.59326268002760851, -0.041752877903111454, 1.1865253600552168]}
    - {mu0: 0, rank: 2, ndensity: 2, num_ms_combs: 3, mus: [0, 0], ns: [1, 3], ls: [2, 2], ms_combs: [0, 0, 1, -1, 2, -2], ctildes: [0.017525317698229695, -0.2360651988780785, -0.035050635396459397, 0.47213039775615706, 0.035050635396459404, -0.47213039775615717]}
    - {mu0: 0, rank: 2, ndensity: 2, num_ms_combs: 1, mus: [0, 0], ns: [1, 4], ls: [0, 0], ms_combs: [0, 0], ctildes: [-0.66239071648156123, -1.5566360896683771]}
    - {mu0: 0, rank: 2, ndensity: 2, num_ms_combs: 2, mus: [0, 0], ns: [1, 4], ls: [1, 1], ms_combs: [0, 0, 1, -1], ctildes: [0.015978893792963376, -0.0044254960933078399, -0.031957787585926746, 0.008850992186615678]}
    - {mu0: 0, rank: 2, ndensity: 2, num_ms_combs: 1, mus: [0, 0], ns: [1, 5], ls: [0, 0], ms_combs: [0, 0], ctildes: [-0.0057015473588105129, 0.55729152204694721]}
    - {mu0: 0, rank: 2, ndensity: 2, num_ms_combs: 2, mus: [0, 0], ns: [1, 5], ls: [1, 1], ms_combs: [0, 0, 1, -1], ctildes: [-0.061005327156027599, 0.8479572120135962, 0.12201065431205517, -1.6959144240271919]}
    - {mu0: 0, rank: 2, ndensity: 2, num_ms_combs: 1, mus: [0, 0], ns: [1, 6], ls: [0, 0], ms_combs: [0, 0], ctildes: [0.12644825113940664, -1.8540986198408964]}
    - {mu0: 0, rank: 2, ndensity: 2, num_ms_combs: 1, mus: [0, 0], ns: [2, 2], ls: [0, 0], ms_combs: [0, 0], ctildes: [-1.7712592017853097, 0.879678612914917]}
    - {mu0: 0, rank: 2, ndensity: 2, num_ms_combs: 2, mus: [0, 0], ns: [2, 2], ls: [1, 1], ms_combs: [0, 0, 1, -1], ctildes: [0.18692926176053856, -0.90207473788980186, -0.37385852352107707, 1.8041494757796033]}
    - {mu0: 0, rank: 2, ndensity: 2, num_ms_combs: 3, mus: [0, 0], ns: [2, 2], ls: [2, 2], ms_combs: [0, 0, 1, -1, 2, -2], ctildes: [0.0090885748327961917, -0.21582415373326222, -0.018177149665592383, 0.43164830746652449, 0.018177149665592387, -0.43164830746652461]}
    - {mu0: 0, rank: 2, ndensity: 2, num_ms_combs: 1, mus: [0, 0], ns: [2, 3], ls: [0, 0], ms_combs: [0, 0], ctildes: [0.6281481062691433, -0.0010130765637587438]}
    - {mu0: 0, rank: 2, ndensity: 2, num_ms_combs: 2, mus: [0, 0], ns: [2, 3], ls: [1, 1], ms_combs: [0, 0, 1, -1], ctildes: [-0.026337310855345273, 0.80320575338605416, 0.052674621710690539, -1.6064115067721081]}
    - {mu0: 0, rank: 2, ndensity: 2, num_ms_combs: 1, mus: [0, 0], ns: [2, 4], ls: [0, 0], ms_combs: [0, 0], ctildes: [0.30853734167083918, 1.1560311144255824]}
    - {mu0: 0, rank: 2, ndensity: 2, num_ms_combs: 2, mus: [0, 0], ns: [2, 4], ls: [1, 1], ms_combs: [0, 0, 1, -1], ctildes: [-0.0040881375054748047, -0.63373063411284714, 0.0081762750109496077, 1.2674612682256938]}
    - {mu0: 0, rank: 2, ndensity: 2, num_ms_combs: 1, mus: [0, 0], ns: [2, 5], ls: [0, 0], ms_combs: [0, 0], ctildes: [0.00061979756326029176, 0.42675870900049623]}
    - {mu0: 0, rank: 2, ndensity: 2, num_ms_combs: 1, mus: [0, 0], ns: [2, 6], ls: [0, 0], ms_combs: [0, 0], ctildes: [-0.040939683007828173, 1.1375809376306705]}
    - {mu0: 0, rank: 2, ndensity: 2, num_ms_combs: 1, mus: [0, 0], ns: [3, 3], ls: [0, 0], ms_combs: [0, 0], ctildes: [0.39706867237532306, -3.4302443369576738]}
    - {mu0: 0, rank: 2, ndensity: 2, num_ms_combs: 2, mus: [0, 0], ns: [3, 3], ls: [1, 1], ms_combs: [0, 0, 1, -1], ctildes: [0.0014382696104418345, -0.029782284744702289, -0.0028765392208836686, 0.059564569489404563]}
    - {mu0: 0, rank: 2, ndensity: 2, num_ms_combs: 1, mus: [0, 0], ns: [3, 4], ls: [0, 0], ms_combs: [0, 0], ctildes: [0.43074647200109301, -2.6061517226384678]}
    - {mu0: 0, rank: 2, ndensity: 2, num_ms_combs: 1, mus: [0, 0], ns: [3, 5], ls: [0, 0], ms_combs: [0, 0], ctildes: [-0.0116259144271692, -0.19713713112171963]}
    - {mu0: 0, rank: 2, ndensity: 2, num_ms_combs: 1, mus: [0, 0], ns: [4, 4], ls: [0, 0], ms_combs: [0, 0], ctildes: [0.21898205354810427, -2.4075357030277122]}
    - {mu0: 0, rank: 2, ndensity: 2, num_ms_combs: 1, mus: [0, 1], ns: [1, 1], ls: [0, 0], ms_combs: [0, 0], ctildes: [0.55280671661586089, 0.009246798009494267]}
    - {mu0: 0, rank: 2, ndensity: 2, num_ms_combs: 2, mus: [0, 1], ns: [1, 1], ls: [1, 1], ms_combs: [0, 0, 1, -1], ctildes: [-0.19905906016044148, -0.035933618778648126, 0.3981181203208829, 0.071867237557296237]}
    - {mu0: 0, rank: 2, ndensity: 2, num_ms_combs: 3, mus: [0, 1], ns: [1, 1], ls: [2, 2], ms_combs: [0, 0, 1, -1, 2, -2], ctildes: [0.038505804133047508, -0.30628099778596135, -0.077011608266095016, 0.61256199557192281, 0.077011608266095044, -0.61256199557192292]}
    - {mu0: 0, rank: 2, ndensity: 2, num_ms_combs: 1, mus: [0, 1], ns: [1, 2], ls: [0, 0], ms_combs: [0, 0], ctildes: [0.79698023835278586, -0.032219798722058331]}
    - {mu0: 0, rank: 2, ndensity: 2, num_ms_combs: 2, mus: [0, 1], ns: [1, 2], ls: [1, 1], ms_combs: [0, 0, 1, -1], ctildes: [-0.13049881768833557, -0.048015660105568847, 0.26099763537667109, 0.09603132021113768]}
    - {mu0: 0, rank: 2, ndensity: 2, num_ms_combs: 1, mus: [0, 1], ns: [1, 3], ls: [0, 0], ms_combs: [0, 0], ctildes: [0.13394952869997792, -0.025583716530874687]}
    - {mu0: 0, rank: 2, ndensity: 2, num_ms_combs: 2, mus: [0, 1], ns: [1, 3], ls: [1, 1], ms_combs: [0, 0, 1, -1], ctildes: [0.018651808462462484, -0.25138198330575179, -0.037303616924924961, 0.50276396661150347]}
    - {mu0: 0, rank: 2, ndensity: 2, num_ms_combs: 1, mus: [0, 1], ns: [1, 4], ls: [0, 0], ms_combs: [0, 0], ctildes: [0.076693560053944218, -0.090175349293313667]}
    - {mu0: 0, rank: 2, ndensity: 2, num_ms_combs: 1, mus: [0, 1], ns: [1, 5], ls: [0, 0], ms_combs: [0, 0], ctildes: [-0.069332838979642791, 0.0060568763248505944]}
    - {mu0: 0, rank: 2, ndensity: 2, num_ms_combs: 1, mus: [0, 1], ns: [2, 1], ls: [0, 0], ms_combs: [0, 0], ctildes: [-0.017839715059884333, 0.020584955181173363]}
    - {mu0: 0, rank: 2, ndensity: 2, num_ms_combs: 2, mus: [0, 1], ns: [2, 1], ls: [1, 1], ms_combs: [0, 0, 1, -1], ctildes: [-0.075947975499572037, 0.033497796096180921, 0.15189595099914405, -0.066995592192361841]}
    - {mu0: 0, rank: 2, ndensity: 2, num_ms_combs: 1, mus: [0, 1], ns: [2, 2], ls: [0, 0], ms_combs: [0, 0], ctildes: [0.10344856952511274, 0.12144496519145803]}
    - {mu0: 0, rank: 2, ndensity: 2, num_ms_combs: 2, mus: [0, 1], ns: [2, 2], ls: [1, 1], ms_combs: [0, 0, 1, -1], ctildes: [-0.075302748661059668, 0.026219544861203103, 0.15060549732211931, -0.052439089722406199]}
    - {mu0: 0, rank: 2, ndensity: 2, num_ms_combs: 1, mus: [0, 1], ns: [2, 3], ls: [0, 0], ms_combs: [0, 0], ctildes: [-0.32759059025626514, 0.095150527402190196]}
    - {mu0: 0, rank: 2, ndensity: 2, num_ms_combs: 1, mus: [0, 1], ns: [2, 4], ls: [0, 0], ms_combs: [0, 0], ctildes: [-0.079336296429904737, 0.078078668125322673]}
    - {mu0: 0, rank: 2, ndensity: 2, num_ms_combs: 1, mus: [0, 1], ns: [3, 1], ls: [0, 0], ms_combs: [0, 0], ctildes: [-0.15697523759685797, 0.045622451725124552]}
    - {mu0: 0, rank: 2, ndensity: 2, num_ms_combs: 2, mus: [0, 1], ns: [3, 1], ls: [1, 1], ms_combs: [0, 0, 1, -1], ctildes: [0.0134463179180828, -0.090397392494528397, -0.026892635836165597, 0.18079478498905677]}
    - {mu0: 0, rank: 2, ndensity: 2, num_ms_combs: 1, mus: [0, 1], ns: [3, 2], ls: [0, 0], ms_combs: [0, 0], ctildes: [0.17455243369991474, 0.20228383172985248]}
    - {mu0: 0, rank: 2, ndensity: 2, num_ms_combs: 1, mus: [0, 1], ns: [3, 3], ls: [0, 0], ms_combs: [0, 0], ctildes: [0.071731583745954258, 0.26743144042890293]}
    - {mu0: 0, rank: 2, ndensity: 2, num_ms_combs: 1, mus: [0, 1], ns: [4, 1], ls: [0, 0], ms_combs: [0, 0], ctildes: [1.0699250423129527, -0.0044077197872961441]}
    - {mu0: 0, rank: 2, ndensity: 2, num_ms_combs: 1, mus: [0, 1], ns: [4, 2], ls: [0, 0], ms_combs: [0, 0], ctildes: [-0.031950966269741178, -0.26412516662230145]}
    - {mu0: 0, rank: 2, ndensity: 2, num_ms_combs: 1, mus: [0, 1], ns: [5, 1], ls: [0, 0], ms_combs: [0, 0], ctildes: [0.28443751772252779, -0.26741277718745754]}
    - {mu0: 0, rank: 2, ndensity: 2, num_ms_combs: 1, mus: [0, 2], ns: [1, 1], ls: [0, 0], ms_combs: [0, 0], ctildes: [4.1006209973630474, -0.3108865923045202]}
    - {mu0: 0, rank: 2, ndensity: 2, num_ms_combs: 2, mus: [0, 2], ns: [1, 1], ls: [1, 1], ms_combs: [0, 0, 1, -1], ctildes: [-0.16555222909868836, 1.5274629786031102, 0.33110445819737666, -3.05492595720622]}
    - {mu0: 0, rank: 2, ndensity: 2, num_ms_combs: 3, mus: [0, 2], ns: [1, 1], ls: [2, 2], ms_combs: [0, 0, 1, -1, 2, -2], ctildes: [-0.019241423800208313, 1.2589156067791076, 0.038482847600416627, -2.5178312135582157, -0.038482847600416641, 2.5178312135582162]}
    - {mu0: 0, rank: 2, ndensity: 2, num_ms_combs: 1, mus: [0, 2], ns: [1, 2], ls: [0, 0], ms_combs: [0, 0], ctildes: [0.61173400877808726, 0.58497194985229095]}
    - {mu0: 0, rank: 2, ndensity: 2, num_ms_combs: 2, mus: [0, 2], ns: [1, 2], ls: [1, 1], ms_combs: [0, 0, 1, -1], ctildes: [-0.3480803675368786, 0.69295696569398746, 0.69616073507375709, -1.3859139313879747]}
    - {mu0: 0, rank: 2, ndensity: 2, num_ms_combs: 1, mus: [0, 2], ns: [1, 3], ls: [0, 0], ms_combs: [0, 0], ctildes: [1.692150389839691, 0.22126417860675088]}
    - {mu0: 0, rank: 2, ndensity: 2, num_ms_combs: 2, mus: [0, 2], ns: [1, 3], ls: [1, 1], ms_combs: [0, 0, 1, -1], ctildes: [-0.32722516285240932, -1.3064659906566236, 0.65445032570481854, 2.6129319813132468]}
    - {mu0: 0, rank: 2, ndensity: 2, num_ms_combs: 1, mus: [0, 2], ns: [1, 4], ls: [0, 0], ms_combs: [0, 0], ctildes: [-0.11731642744757281, -1.8637177583611422]}
    - {mu0: 0, rank: 2, ndensity: 2, num_ms_combs: 1, mus: [0, 2], ns: [1, 5], ls: [0, 0], ms_combs: [0, 0], ctildes: [1.5527466406119304, -0.077604241658841833]}
    - {mu0: 0, rank: 2, ndensity: 2, num_ms_combs: 1, mus: [0, 2], ns: [2, 1], ls: [0, 0], ms_combs: [0, 0], ctildes: [-1.1557258301622022, 0.66579244964330098]}
    - {mu0: 0, rank: 2, ndensity: 2, num_ms_combs: 2, mus: [0, 2], ns: [2, 1], ls: [1, 1], ms_combs: [0, 0, 1, -1], ctildes: [-0.16414379578150137, -0.73496683151300979, 0.32828759156300263, 1.4699336630260194]}
    - {mu0: 0, rank: 2, ndensity: 2, num_ms_combs: 1, mus: [0, 2], ns: [2, 2], ls: [0, 0], ms_combs: [0, 0], ctildes: [1.3762681248220761, 0.76703678210767789]}
    - {mu0: 0, rank: 2, ndensity: 2, num_ms_combs: 2, mus: [0, 2], ns: [2, 2], ls: [1, 1], ms_combs: [0, 0, 1, -1], ctildes: [0.081355724319919873, -0.60212020457671178, -0.16271144863983972, 1.2042404091534233]}
    - {mu0: 0, rank: 2, ndensity: 2, num_ms_combs: 1, mus: [0, 2], ns: [2, 3], ls: [0, 0], ms_combs: [0, 0], ctildes: [0.97823374390929185, -0.17213188549310562]}
    - {mu0: 0, rank: 2, ndensity: 2, num_ms_combs: 1, mus: [0, 2], ns: [2, 4], ls: [0, 0], ms_combs: [0, 0], ctildes: [0.64149156037497068, 0.24678049502769464]}
    - {mu0: 0, rank: 2, ndensity: 2, num_ms_combs: 1, mus: [0, 2], ns: [3, 1], ls: [0, 0], ms_combs: [0, 0], ctildes: [-1.2663427058612144, 3.1213291131164667]}
    - {mu0: 0, rank: 2, ndensity: 2, num_ms_combs: 2, mus: [0, 2], ns: [3, 1], ls: [1, 1], ms_combs: [0, 0, 1, -1], ctildes: [-0.053048418510336724, 0.33754100365032436, 0.10609683702067343, -0.6750820073006486]}
    - {mu0: 0, rank: 2, ndensity: 2, num_ms_combs: 1, mus: [0, 2], ns: [3, 2], ls: [0, 0], ms_combs: [0, 0], ctildes: [-0.65005842447651441, 1.4761339264632038]}
    - {mu0: 0, rank: 2, ndensity: 2, num_ms_combs: 1, mus: [0, 2], ns: [3, 3], ls: [0, 0], ms_combs: [0, 0], ctildes: [-0.014396455408164751, -0.8938303566044985]}
    - {mu0: 0, rank: 2, ndensity: 2, num_ms_combs: 1, mus: [0, 2], ns: [4, 1], ls: [0, 0], ms_combs: [0, 0], ctildes: [-0.36279741824829204, -3.1534482170731191]}
    - {mu0: 0, rank: 2, ndensity: 2, num_ms_combs: 1, mus: [0, 2], ns: [4, 2], ls: [0, 0], ms_combs: [0, 0], ctildes: [-0.54551262292189073, 2.6974176849554117]}
    - {mu0: 0, rank: 2, ndensity: 2, num_ms_combs: 1, mus: [0, 2], ns: [5, 1], ls: [0, 0], ms_combs: [0, 0], ctildes: [-0.066279447081596984, 1.5278604421764816]}
    - {mu0: 0, rank: 2, ndensity: 2, num_ms_combs: 1, mus: [1, 1], ns: [1, 1], ls: [0, 0], ms_combs: [0, 0], ctildes: [0.40396719171790718, 0.01377225612767141]}
    - {mu0: 0, rank: 2, ndensity: 2, num_ms_combs: 2, mus: [1, 1], ns: [1, 1], ls: [1, 1], ms_combs: [0, 0, 1, -1], ctildes: [0.20880959071403746, -0.050118950933196502, -0.41761918142807486, 0.10023790186639299]}
    - {mu0: 0, rank: 2, ndensity: 2, num_ms_combs: 3, mus: [1, 1], ns: [1, 1], ls: [2, 2], ms_combs: [0, 0, 1, -1, 2, -2], ctildes: [0.18848062468306392, -0.066063194280908621, -0.3769612493661279, 0.13212638856181724, 0.37696124936612802, -0.13212638856181727]}
    - {mu0: 0, rank: 2, ndensity: 2, num_ms_combs: 1, mus: [1, 1], ns: [1, 2], ls: [0, 0], ms_combs: [0, 0], ctildes: [-0.22852645116088505, -0.044820350109703061]}
    - {mu0: 0, rank: 2, ndensity: 2, num_ms_combs: 2, mus: [1, 1], ns: [1, 2], ls: [1, 1], ms_combs: [0, 0, 1, -1], ctildes: [-0.18948564453504704, -0.096960179338852315, 0.37897128907009398, 0.1939203586777046]}
    - {mu0: 0, rank: 2, ndensity: 2, num_ms_combs: 1, mus: [1, 1], ns: [1, 3], ls: [0, 0], ms_combs: [0, 0], ctildes: [0.027466754483226535, -0.0065912396261631123]}
    - {mu0: 0, rank: 2, ndensity: 2, num_ms_combs: 2, mus: [1, 1], ns: [1, 3], ls: [1, 1], ms_combs: [0, 0, 1, -1], ctildes: [-0.11914937686823279, -0.05081618320697262, 0.23829875373646553, 0.10163236641394521]}
    - {mu0: 0, rank: 2, ndensity: 2, num_ms_combs: 1, mus: [1, 1], ns: [1, 4], ls: [0, 0], ms_combs: [0, 0], ctildes: [-0.024426391229510517, 0.0014865231181005985]}
    - {mu0: 0, rank: 2, ndensity: 2, num_ms_combs: 1, mus: [1, 1], ns: [1, 5], ls: [0, 0], ms_combs: [0, 0], ctildes: [-0.018006225315808748, 0.0089151322207543082]}
    - {mu0: 0, rank: 2, ndensity: 2, num_ms_combs: 1, mus: [1, 1], ns: [2, 2], ls: [0, 0], ms_combs: [0, 0], ctildes: [-0.33639492523043107, -0.12004483883794323]}
    - {mu0: 0, rank: 2, ndensity: 2, num_ms_combs: 2, mus: [1, 1], ns: [2, 2], ls: [1, 1], ms_combs: [0, 0, 1, -1], ctildes: [-0.16264563871757073, -0.14056549382868938, 0.32529127743514141, 0.28113098765737871]}
    - {mu0: 0, rank: 2, ndensity: 2, num_ms_combs: 1, mus: [1, 1], ns: [2, 3], ls: [0, 0], ms_combs: [0, 0], ctildes: [-0.41500321928294764, -0.065367507271903422]}
    - {mu0: 0, rank: 2, ndensity: 2, num_ms_combs: 1, mus: [1, 1], ns: [2, 4], ls: [0, 0], ms_combs: [0, 0], ctildes: [-0.19649878287126288, -0.024354718153702319]}
    - {mu0: 0, rank: 2, ndensity: 2, num_ms_combs: 1, mus: [1, 2], ns: [1, 1], ls: [0, 0], ms_combs: [0, 0], ctildes: [0.36365439777508884, -0.098284753572548483]}
    - {mu0: 0, rank: 2, ndensity: 2, num_ms_combs: 2, mus: [1, 2], ns: [1, 1], ls: [1, 1], ms_combs: [0, 0, 1, -1], ctildes: [-0.29211715923383313, -0.01186977328562369, 0.58423431846766616, 0.023739546571247376]}
    - {mu0: 0, rank: 2, ndensity: 2, num_ms_combs: 3, mus: [1, 2], ns: [1, 1], ls: [2, 2], ms_combs: [0, 0, 1, -1, 2, -2], ctildes: [0.068839140178688515, -0.48276053276824721, -0.13767828035737703, 0.96552106553649453, 0.13767828035737709, -0.96552106553649475]}
    - {mu0: 0, rank: 2, ndensity: 2, num_ms_combs: 1, mus: [1, 2], ns: [1, 2], ls: [0, 0], ms_combs: [0, 0], ctildes: [0.4497233332335136, -0.064133009162462742]}
    - {mu0: 0, rank: 2, ndensity: 2, num_ms_combs: 2, mus: [1, 2], ns: [1, 2], ls: [1, 1], ms_combs: [0, 0, 1, -1], ctildes: [0.32352229681155487, 0.039771461466904023, -0.64704459362310951, -0.079542922933808033]}
    - {mu0: 0, rank: 2, ndensity: 2, num_ms_combs: 1, mus: [1, 2], ns: [1, 3], ls: [0, 0], ms_combs: [0, 0], ctildes: [-0.47678396090084979, -0.045992019515813921]}
    - {mu0: 0, rank: 2, ndensity: 2, num_ms_combs: 2, mus: [1, 2], ns: [1, 3], ls: [1, 1], ms_combs: [0, 0, 1, -1], ctildes: [0.11849352771186089, -0.0087750269734147169, -0.23698705542372175, 0.01755005394682943]}
    - {mu0: 0, rank: 2, ndensity: 2, num_ms_combs: 1, mus: [1, 2], ns: [2, 1], ls: [0, 0], ms_combs: [0, 0], ctildes: [0.14888660086810721, -0.41613042694570485]}
    - {mu0: 0, rank: 2, ndensity: 2, num_ms_combs: 2, mus: [1, 2], ns: [2, 1], ls: [1, 1], ms_combs: [0, 0, 1, -1], ctildes: [-0.12899356298485823, 0.01944718229551173, 0.2579871259697164, -0.038894364591023453]}
    - {mu0: 0, rank: 2, ndensity: 2, num_ms_combs: 1, mus: [1, 2], ns: [2, 2], ls: [0, 0], ms_combs: [0, 0], ctildes: [0.42586959402636765, -0.39934679393253292]}
    - {mu0: 0, rank: 2, ndensity: 2, num_ms_combs: 2, mus: [1, 2], ns: [2, 2], ls: [1, 1], ms_combs: [0, 0, 1, -1], ctildes: [0.089813363215380984, 0.037449280201013256, -0.17962672643076191, -0.074898560402026498]}
    - {mu0: 0, rank: 2, ndensity: 2, num_ms_combs: 1, mus: [1, 2], ns: [2, 3], ls: [0, 0], ms_combs: [0, 0], ctildes: [-0.41921469487484886, -0.12037888246043955]}
    - {mu0: 0, rank: 2, ndensity: 2, num_ms_combs: 1, mus: [1, 2], ns: [3, 1], ls: [0, 0], ms_combs: [0, 0], ctildes: [0.27275664813031125, -0.058082120225627198]}
    - {mu0: 0, rank: 2, ndensity: 2, num_ms_combs: 2, mus: [1, 2], ns: [3, 1], ls: [1, 1], ms_combs: [0, 0, 1, -1], ctildes: [-0.0028576534181335143, -0.043571294375692141, 0.0057153068362670277, 0.087142588751384267]}
    - {mu0: 0, rank: 2, ndensity: 2, num_ms_combs: 1, mus: [1, 2], ns: [3, 2], ls: [0, 0], ms_combs: [0, 0], ctildes: [-0.11255003018157821, -0.00011265064525451537]}
    - {mu0: 0, rank: 2, ndensity: 2, num_ms_combs: 1, mus: [1, 2], ns: [3, 3], ls: [0, 0], ms_combs: [0, 0], ctildes: [0.2091374583791907, 0.087453738094486672]}
    - {mu0: 0, rank: 2, ndensity: 2, num_ms_combs: 1, mus: [2, 2], ns: [1, 1], ls: [0, 0], ms_combs: [0, 0], ctildes: [1.3664393672462896, -0.73904172441081339]}
    - {mu0: 0, rank: 2, ndensity: 2, num_ms_combs: 2, mus: [2, 2], ns: [1, 1], ls: [1, 1], ms_combs: [0, 0, 1, -1], ctildes: [0.66050087350908204, 0.21683684146837059, -1.3210017470181639, -0.43367368293674113]}
    - {mu0: 0, rank: 2, ndensity: 2, num_ms_combs: 3, mus: [2, 2], ns: [1, 1], ls: [2, 2], ms_combs: [0, 0, 1, -1, 2, -2], ctildes: [-0.0098249129906670847, 0.35578378863130361, 0.019649825981334169, -0.71156757726260733, -0.019649825981334176, 0.71156757726260744]}
    - {mu0: 0, rank: 2, ndensity: 2, num_ms_combs: 1, mus: [2, 2], ns: [1, 2], ls: [0, 0], ms_combs: [0, 0], ctildes: [1.4451061140249426, 1.5541829702124172]}
    - {mu0: 0, rank: 2, ndensity: 2, num_ms_combs: 2, mus: [2, 2], ns: [1, 2], ls: [1, 1], ms_combs: [0, 0, 1, -1], ctildes: [0.62875648456779176, 0.0073445202841300123, -1.2575129691355833, -0.014689040568260021]}
    - {mu0: 0, rank: 2, ndensity: 2, num_ms_combs: 1, mus: [2, 2], ns: [1, 3], ls: [0, 0], ms_combs: [0, 0], ctildes: [0.52735903324153077, 0.93370547746458443]}
    - {mu0: 0, rank: 2, ndensity: 2, num_ms_combs: 2, mus: [2, 2], ns: [1, 3], ls: [1, 1], ms_combs: [0, 0, 1, -1], ctildes: [0.5869281114719842, 0.1726547688013442, -1.1738562229439682, -0.34530953760268829]}
    - {mu0: 0, rank: 2, ndensity: 2, num_ms_combs: 1, mus: [2, 2], ns: [1, 4], ls: [0, 0], ms_combs: [0, 0], ctildes: [-0.018097669680699542, -5.97988350674723]}
    - {mu0: 0, rank: 2, ndensity: 2, num_ms_combs: 1, mus: [2, 2], ns: [1, 5], ls: [0, 0], ms_combs: [0, 0], ctildes: [0.8371288800889608, -0.55818998695142907]}
    - {mu0: 0, rank: 2, ndensity: 2, num_ms_combs: 1, mus: [2, 2], ns: [2, 2], ls: [0, 0], ms_combs: [0, 0], ctildes: [-0.33160959520570932, -0.62997584809471296]}
    - {mu0: 0, rank: 2, ndensity: 2, num_ms_combs: 2, mus: [2, 2], ns: [2, 2], ls: [1, 1], ms_combs: [0, 0, 1, -1], ctildes: [0.050892245220762355, 1.1684451904930522, -0.1017844904415247, -2.3368903809861039]}
    - {mu0: 0, rank: 2, ndensity: 2, num_ms_combs: 1, mus: [2, 2], ns: [2, 3], ls: [0, 0], ms_combs: [0, 0], ctildes: [-0.68030374231208812, -0.12127132484517308]}
    - {mu0: 0, rank: 2, ndensity: 2, num_ms_combs: 1, mus: [2, 2], ns: [2, 4], ls: [0, 0], ms_combs: [0, 0], ctildes: [-0.7323150164365112, 1.35817598435145]}
    - {mu0: 0, rank: 3, ndensity: 2, num_ms_combs: 1, mus: [0, 0, 0], ns: [1, 1, 1], ls: [0, 0, 0], ms_combs: [0, 0, 0], ctildes: [1.1429950222898146, 0.85427288341265617]}
    - {mu0: 0, rank: 3, ndensity: 2, num_ms_combs: 2, mus: [0, 0, 0], ns: [1, 1, 1], ls: [0, 1, 1], ms_combs: [0, 0, 0, 0, 1, -1], ctildes: [-0.026981498068578063, 0.53504310105338226, 0.053962996137156119, -1.0700862021067643]}
    - {mu0: 0, rank: 3, ndensity: 2, num_ms_combs: 1, mus: [0, 0, 0], ns: [1, 1, 2], ls: [0, 0, 0], ms_combs: [0, 0, 0], ctildes: [1.1167718919305401, -0.40115625586615489]}
    - {mu0: 0, rank: 3, ndensity: 2, num_ms_combs: 2, mus: [0, 0, 0], ns: [1, 1, 2], ls: [0, 1, 1], ms_combs: [0, 0, 0, 0, 1, -1], ctildes: [0.016214697635776265, -0.92303985413117717, -0.032429395271552523, 1.8460797082623539]}
    - {mu0: 0, rank: 3, ndensity: 2, num_ms_combs: 2, mus: [0, 0, 0], ns: [1, 1, 2], ls: [1, 1, 0], ms_combs: [0, 0, 0, 1, -1, 0], ctildes: [-0.0014294281389097539, 0.3484206324323722, 0.0028588562778195073, -0.69684126486474429]}
    - {mu0: 0, rank: 3, ndensity: 2, num_ms_combs: 1, mus: [0, 0, 0], ns: [1, 1, 3], ls: [0, 0, 0], ms_combs: [0, 0, 0], ctildes: [-0.33963279090284165, -0.59503080787555951]}
    - {mu0: 0, rank: 3, ndensity: 2, num_ms_combs: 1, mus: [0, 0, 0], ns: [1, 1, 4], ls: [0, 0, 0], ms_combs: [0, 0, 0], ctildes: [-0.32472992422295655, 0.13018852505947257]}
    - {mu0: 0, rank: 3, ndensity: 2, num_ms_combs: 1, mus: [0, 0, 0], ns: [1, 2, 2], ls: [0, 0, 0], ms_combs: [0, 0, 0], ctildes: [0.045342070300525748, -0.083644151086089719]}
    - {mu0: 0, rank: 3, ndensity: 2, num_ms_combs: 1, mus: [0, 0, 0], ns: [1, 2, 3], ls: [0, 0, 0], ms_combs: [0, 0, 0], ctildes: [-0.089462731954159852, -1.8437527156390847]}
    - {mu0: 0, rank: 3, ndensity: 2, num_ms_combs: 1, mus: [0, 0, 0], ns: [2, 2, 2], ls: [0, 0, 0], ms_combs: [0, 0, 0], ctildes: [-0.097937911314071396, 1.8833682002683549]}
    - {mu0: 0, rank: 3, ndensity: 2, num_ms_combs: 1, mus: [0, 0, 1], ns: [1, 1, 1], ls: [0, 0, 0], ms_combs: [0, 0, 0], ctildes: [0.033275794096600919, 0.0058183649694187921]}
    - {mu0: 0, rank: 3, ndensity: 2, num_ms_combs: 1, mus: [0, 0, 1], ns: [1, 1, 2], ls: [0, 0, 0], ms_combs: [0, 0, 0], ctildes: [-0.25723053004511837, 0.00011840591726979079]}
    - {mu0: 0, rank: 3, ndensity: 2, num_ms_combs: 1, mus: [0, 0, 1], ns: [1, 2, 1], ls: [0, 0, 0], ms_combs: [0, 0, 0], ctildes: [-0.31128443906758158, -0.0086986833362090715]}
    - {mu0: 0, rank: 3, ndensity: 2, num_ms_combs: 1, mus: [0, 0, 2], ns: [1, 1, 1], ls: [0, 0, 0], ms_combs: [0, 0, 0], ctildes: [-0.28527244308055028, 0.14592771009833067]}
    - {mu0: 0, rank: 3, ndensity: 2, num_ms_combs: 1, mus: [0, 0, 2], ns: [1, 1, 2], ls: [0, 0, 0], ms_combs: [0, 0, 0], ctildes: [-0.21035236346544456, 2.043069276217421]}
    - {mu0: 0, rank: 3, ndensity: 2, num_ms_combs: 1, mus: [0, 0, 2], ns: [1, 2, 1], ls: [0, 0, 0], ms_combs: [0, 0, 0], ctildes: [0.56777844292807977, 0.84669826629716727]}
    - {mu0: 0, rank: 3, ndensity: 2, num_ms_combs: 1, mus: [0, 1, 1], ns: [1, 1, 1], ls: [0, 0, 0], ms_combs: [0, 0, 0], ctildes: [0.24651579670864907, 0.0069515066040694972]}
    - {mu0: 0, rank: 3, ndensity: 2, num_ms_combs: 1, mus: [0, 1, 1], ns: [1, 1, 2], ls: [0, 0, 0], ms_combs: [0, 0, 0], ctildes: [-0.061414196085903573, -0.005446982091329153]}
    - {mu0: 0, rank: 3, ndensity: 2, num_ms_combs: 1, mus: [0, 1, 1], ns: [2, 1, 1], ls: [0, 0, 0], ms_combs: [0, 0, 0], ctildes: [-0.18432119666154625, -0.016702524409233904]}
    - {mu0: 0, rank: 3, ndensity: 2, num_ms_combs: 1, mus: [0, 1, 2], ns: [1, 1, 1], ls: [0, 0, 0], ms_combs: [0, 0, 0], ctildes: [0.45381578154494751, 0.0068490816040027167]}
    - {mu0: 0, rank: 3, ndensity: 2, num_ms_combs: 2, mus: [0, 1, 2], ns: [1, 1, 1], ls: [0, 1, 1], ms_combs: [0, 0, 0, 0, 1, -1], ctildes: [-0.06199360670343787, -0.0044067628190042956, 0.12398721340687571, 0.0088135256380085895]}
    - {mu0: 0, rank: 3, ndensity: 2, num_ms_combs: 2, mus: [0, 1, 2], ns: [1, 1, 1], ls: [1, 0, 1], ms_combs: [0, 0, 0, 1, 0, -1], ctildes: [-0.55950514288089281, -0.0020413813579305499, 1.1190102857617854, 0.0040827627158610989]}
    - {mu0: 0, rank: 3, ndensity: 2, num_ms_combs: 2, mus: [0, 1, 2], ns: [1, 1, 1], ls: [1, 1, 0], ms_combs: [0, 0, 0, 1, -1, 0], ctildes: [0.14631178184248375, -0.020942577834353642, -0.29262356368496745, 0.041885155668707277]}
    - {mu0: 0, rank: 3, ndensity: 2, num_ms_combs: 1, mus: [0, 1, 2], ns: [1, 1, 2], ls: [0, 0, 0], ms_combs: [0, 0, 0], ctildes: [-0.025207085318718292, -5.8773613978357008e-05]}
    - {mu0: 0, rank: 3, ndensity: 2, num_ms_combs: 1, mus: [0, 1, 2], ns: [1, 1, 3], ls: [0, 0, 0], ms_combs: [0, 0, 0], ctildes: [-0.49211548349686507, -0.024459953982423434]}
    - {mu0: 0, rank: 3, ndensity: 2, num_ms_combs: 1, mus: [0, 1, 2], ns: [1, 2, 1], ls: [0, 0, 0], ms_combs: [0, 0, 0], ctildes: [-0.18660888511434159, -0.067857818799365227]}
    - {mu0: 0, rank: 3, ndensity: 2, num_ms_combs: 1, mus: [0, 1, 2], ns: [1, 2, 2], ls: [0, 0, 0], ms_combs: [0, 0, 0], ctildes: [-0.33794563864077115, -0.022090578347895282]}
    - {mu0: 0, rank: 3, ndensity: 2, num_ms_combs: 1, mus: [0, 1, 2], ns: [1, 3, 1], ls: [0, 0, 0], ms_combs: [0, 0, 0], ctildes: [0.023011415824230063, -0.026532793555925693]}
    - {mu0: 0, rank: 3, ndensity: 2, num_ms_combs: 1, mus: [0, 1, 2], ns: [2, 1, 1], ls: [0, 0, 0], ms_combs: [0, 0, 0], ctildes: [0.00454047503430716, -0.019398202547424654]}
    - {mu0: 0, rank: 3, ndensity: 2, num_ms_combs: 1, mus: [0, 1, 2], ns: [2, 1, 2], ls: [0, 0, 0], ms_combs: [0, 0, 0], ctildes: [-0.22388672180707123, -0.0030243489643530181]}
    - {mu0: 0, rank: 3, ndensity: 2, num_ms_combs: 1, mus: [0, 1, 2], ns: [2, 2, 1], ls: [0, 0, 0], ms_combs: [0, 0, 0], ctildes: [0.043259202684497303, 0.034375240421663622]}
    - {mu0: 0, rank: 3, ndensity: 2, num_ms_combs: 1, mus: [0, 1, 2], ns: [3, 1, 1], ls: [0, 0, 0], ms_combs: [0, 0, 0], ctildes: [-0.46053865451281528, 0.035409530262647232]}
    - {mu0: 0, rank: 3, ndensity: 2, num_ms_combs: 1, mus: [0, 2, 2], ns: [1, 1, 1], ls: [0, 0, 0], ms_combs: [0, 0, 0], ctildes: [-0.38446497760663784, -0.085975822287946008]}
    - {mu0: 0, rank: 3, ndensity: 2, num_ms_combs: 1, mus: [0, 2, 2], ns: [1, 1, 2], ls: [0, 0, 0], ms_combs: [0, 0, 0], ctildes: [-0.3365416825763422, -0.14858110026142293]}
    - {mu0: 0, rank: 3, ndensity: 2, num_ms_combs: 1, mus: [0, 2, 2], ns: [2, 1, 1], ls: [0, 0, 0], ms_combs: [0, 0, 0], ctildes: [0.18553019020933545, -1.0117824948116529]}
    - {mu0: 0, rank: 3, ndensity: 2, num_ms_combs: 1, mus: [1, 1, 1], ns: [1, 1, 1], ls: [0, 0, 0], ms_combs: [0, 0, 0], ctildes: [0.81721986932961677, 0.065930721403323733]}
    - {mu0: 0, rank: 3, ndensity: 2, num_ms_combs: 1, mus: [1, 1, 1], ns: [1, 1, 2], ls: [0, 0, 0], ms_combs: [0, 0, 0], ctildes: [-0.2446561228209736, -0.019937261118308375]}
    - {mu0: 0, rank: 3, ndensity: 2, num_ms_combs: 1, mus: [1, 1, 2], ns: [1, 1, 1], ls: [0, 0, 0], ms_combs: [0, 0, 0], ctildes: [0.57306998380851126, 0.028543939066712511]}
    - {mu0: 0, rank: 3, ndensity: 2, num_ms_combs: 2, mus: [1, 1, 2], ns: [1, 1, 1], ls: [0, 1, 1], ms_combs: [0, 0, 0, 0, 1, -1], ctildes: [-0.043340614103451927, -0.0053170484530555484, 0.08668122820690384, 0.010634096906111095]}
    - {mu0: 0, rank: 3, ndensity: 2, num_ms_combs: 2, mus: [1, 1, 2], ns: [1, 1, 1], ls: [1, 1, 0], ms_combs: [0, 0, 0, 1, -1, 0], ctildes: [0.3155176425985739, -0.054756185095045984, -0.63103528519714769, 0.10951237019009195]}
    - {mu0: 0, rank: 3, ndensity: 2, num_ms_combs: 1, mus: [1, 1, 2], ns: [1, 1, 2], ls: [0, 0, 0], ms_combs: [0, 0, 0], ctildes: [0.55683443290668999, 0.024284607376569217]}
    - {mu0: 0, rank: 3, ndensity: 2, num_ms_combs: 1, mus: [1, 1, 2], ns: [1, 1, 3], ls: [0, 0, 0], ms_combs: [0, 0, 0], ctildes: [-0.10550660353010943, -0.013125863176084119]}
    - {mu0: 0, rank: 3, ndensity: 2, num_ms_combs: 1, mus: [1, 1, 2], ns: [1, 2, 1], ls: [0, 0, 0], ms_combs: [0, 0, 0], ctildes: [-0.18550627817078341, -0.039460846431610255]}
    - {mu0: 0, rank: 3, ndensity: 2, num_ms_combs: 1, mus: [1, 1, 2], ns: [1, 2, 2], ls: [0, 0, 0], ms_combs: [0, 0, 0], ctildes: [-0.33779553250278388, -0.04955405954009004]}
    - {mu0: 0, rank: 3, ndensity: 2, num_ms_combs: 1, mus: [1, 1, 2], ns: [1, 3, 1], ls: [0, 0, 0], ms_combs: [0, 0, 0], ctildes: [0.13684854504285504, -0.00090790535736890018]}
    - {mu0: 0, rank: 3, ndensity: 2, num_ms_combs: 1, mus: [1, 1, 2], ns: [2, 2, 1], ls: [0, 0, 0], ms_combs: [0, 0, 0], ctildes: [0.18799039665605141, -0.063774901834167994]}
    - {mu0: 0, rank: 3, ndensity: 2, num_ms_combs: 1, mus: [1, 2, 2], ns: [1, 1, 1], ls: [0, 0, 0], ms_combs: [0, 0, 0], ctildes: [0.082904890110329241, -0.11321925323660548]}
    - {mu0: 0, rank: 3, ndensity: 2, num_ms_combs: 2, mus: [1, 2, 2], ns: [1, 1, 1], ls: [0, 1, 1], ms_combs: [0, 0, 0, 0, 1, -1], ctildes: [0.36469158255751077, 0.03180086769622447, -0.72938316511502144, -0.063601735392448927]}
    - {mu0: 0, rank: 3, ndensity: 2, num_ms_combs: 2, mus: [1, 2, 2], ns: [1, 1, 1], ls: [1, 0, 1], ms_combs: [0, 0, 0, 1, 0, -1], ctildes: [0.37771780482947381, 0.0065269995603459722, -0.75543560965894752, -0.013053999120691943]}
    - {mu0: 0, rank: 3, ndensity: 2, num_ms_combs: 1, mus: [1, 2, 2], ns: [1, 1, 2], ls: [0, 0, 0], ms_combs: [0, 0, 0], ctildes: [0.31305338347826872, -0.13148224476670078]}
    - {mu0: 0, rank: 3, ndensity: 2, num_ms_combs: 1, mus: [1, 2, 2], ns: [1, 1, 3], ls: [0, 0, 0], ms_combs: [0, 0, 0], ctildes: [-0.48419142984613844, -0.046626919323332079]}
    - {mu0: 0, rank: 3, ndensity: 2, num_ms_combs: 1, mus: [1, 2, 2], ns: [1, 2, 2], ls: [0, 0, 0], ms_combs: [0, 0, 0], ctildes: [0.06691559171625143, -0.11058505188808837]}
    - {mu0: 0, rank: 3, ndensity: 2, num_ms_combs: 1, mus: [1, 2, 2], ns: [2, 1, 1], ls: [0, 0, 0], ms_combs: [0, 0, 0], ctildes: [0.19817746402767619, -0.3478284664883049]}
    - {mu0: 0, rank: 3, ndensity: 2, num_ms_combs: 1, mus: [1, 2, 2], ns: [2, 1, 2], ls: [0, 0, 0], ms_combs: [0, 0, 0], ctildes: [-0.065004487733566513, -0.51864483439399256]}
    - {mu0: 0, rank: 3, ndensity: 2, num_ms_combs: 1, mus: [1, 2, 2], ns: [3, 1, 1], ls: [0, 0, 0], ms_combs: [0, 0, 0], ctildes: [-0.03848032957970788, 0.0487320288461245]}
    - {mu0: 0, rank: 3, ndensity: 2, num_ms_combs: 1, mus: [2, 2, 2], ns: [1, 1, 1], ls: [0, 0, 0], ms_combs: [0, 0, 0], ctildes: [-0.16736679157086454, -0.97176595751293149]}
    - {mu0: 0, rank: 3, ndensity: 2, num_ms_combs: 1, mus: [2, 2, 2], ns: [1, 1, 2], ls: [0, 0, 0], ms_combs: [0, 0, 0], ctildes: [-0.074750504804189044, 1.5106101317741449]}
    - {mu0: 0, rank: 4, ndensity: 2, num_ms_combs: 1, mus: [0, 0, 0, 0], ns: [1, 1, 1, 1], ls: [0, 0, 0, 0], ms_combs: [0, 0, 0, 0], ctildes: [-0.0017001432340127982, 0.1913348196308956]}
    - {mu0: 0, rank: 4, ndensity: 2, num_ms_combs: 1, mus: [0, 0, 0, 0], ns: [1, 1, 1, 2], ls: [0, 0, 0, 0], ms_combs: [0, 0, 0, 0], ctildes: [-0.0049236693529137992, -1.3516687970552872]}
    - {mu0: 0, rank: 4, ndensity: 2, num_ms_combs: 1, mus: [0, 0, 1, 2], ns: [1, 1, 1, 1], ls: [0, 0, 0, 0], ms_combs: [0, 0, 0, 0], ctildes: [-0.049016237340428044, 0.0051515390759045944]}
    - {mu0: 0, rank: 4, ndensity: 2, num_ms_combs: 1, mus: [0, 1, 1, 2], ns: [1, 1, 1, 1], ls: [0, 0, 0, 0], ms_combs: [0, 0, 0, 0], ctildes: [0.32365506128512034, 0.01324076771980256]}
    - {mu0: 0, rank: 4, ndensity: 2, num_ms_combs: 1, mus: [0, 1, 2, 2], ns: [1, 1, 1, 1], ls: [0, 0, 0, 0], ms_combs: [0, 0, 0, 0], ctildes: [-0.00077343776665337086, -0.022041164289724663]}
  1:
    - {mu0: 1, rank: 1, ndensity: 2, num_ms_combs: 1, mus: [0], ns: [1], ls: [0], ms_combs: [0], ctildes: [0.3158186702629146, 0.21793423350619259]}
    - {mu0: 1, rank: 1, ndensity: 2, num_ms_combs: 1, mus: [0], ns: [2], ls: [0], ms_combs: [0], ctildes: [-0.35441746332770169, -0.28581710169985997]}
    - {mu0: 1, rank: 1, ndensity: 2, num_ms_combs: 1, mus: [0], ns: [3], ls: [0], ms_combs: [0], ctildes: [-0.33894564765871404, -0.50763068653303423]}
    - {mu0: 1, rank: 1, ndensity: 2, num_ms_combs: 1, mus: [0], ns: [4], ls: [0], ms_combs: [0], ctildes: [0.29677876032934786, 0.078876859466075228]}
    - {mu0: 1, rank: 1, ndensity: 2, num_ms_combs: 1, mus: [0], ns: [5], ls: [0], ms_combs: [0], ctildes: [-0.0019358780839215572, 0.17687787429319782]}
    - {mu0: 1, rank: 1, ndensity: 2, num_ms_combs: 1, mus: [0], ns: [6], ls: [0], ms_combs: [0], ctildes: [-0.11912005810336236, 0.19807945648835748]}
    - {mu0: 1, rank: 1, ndensity: 2, num_ms_combs: 1, mus: [0], ns: [7], ls: [0], ms_combs: [0], ctildes: [-0.034681616369395672, 0.033493222960304311]}
    - {mu0: 1, rank: 1, ndensity: 2, num_ms_combs: 1, mus: [1], ns: [1], ls: [0], ms_combs: [0], ctildes: [0.19628670807755602, 0.087591525363186484]}
    - {mu0: 1, rank: 1, ndensity: 2, num_ms_combs: 1, mus: [1], ns: [2], ls: [0], ms_combs: [0], ctildes: [-0.1432888401331579, -0.10348247984797423]}
    - {mu0: 1, rank: 1, ndensity: 2, num_ms_combs: 1, mus: [1], ns: [3], ls: [0], ms_combs: [0], ctildes: [-0.57032168900272351, -0.48344252977842173]}
    - {mu0: 1, rank: 1, ndensity: 2, num_ms_combs: 1, mus: [1], ns: [4], ls: [0], ms_combs: [0], ctildes: [-0.31657197006192012, -0.51795795013914125]}
    - {mu0: 1, rank: 1, ndensity: 2, num_ms_combs: 1, mus: [1], ns: [5], ls: [0], ms_combs: [0], ctildes: [-0.092982670175934409, -0.20450119041277001]}
    - {mu0: 1, rank: 1, ndensity: 2, num_ms_combs: 1, mus: [1], ns: [6], ls: [0], ms_combs: [0], ctildes: [-0.14010819106963554, 0.0045021988880103508]}
    - {mu0: 1, rank: 1, ndensity: 2, num_ms_combs: 1, mus: [1], ns: [7], ls: [0], ms_combs: [0], ctildes: [0.0629328863047703, -0.054381065498503016]}
    - {mu0: 1, rank: 1, ndensity: 2, num_ms_combs: 1, mus: [1], ns: [8], ls: [0], ms_combs: [0], ctildes: [0.038417941198458302, -0.14665566398529517]}
    - {mu0: 1, rank: 1, ndensity: 2, num_ms_combs: 1, mus: [1], ns: [9], ls: [0], ms_combs: [0], ctildes: [-0.03046868028919026, 0.10516199460157759]}
    - {mu0: 1, rank: 1, ndensity: 2, num_ms_combs: 1, mus: [2], ns: [1], ls: [0], ms_combs: [0], ctildes: [0.92059732515091464, 0.27783701859589893]}
    - {mu0: 1, rank: 1, ndensity: 2, num_ms_combs: 1, mus: [2], ns: [2], ls: [0], ms_combs: [0], ctildes: [-0.48752994451870452, -0.19355511225830649]}
    - {mu0: 1, rank: 1, ndensity: 2, num_ms_combs: 1, mus: [2], ns: [3], ls: [0], ms_combs: [0], ctildes: [-0.52596269573155763, -0.062588455265339779]}
    - {mu0: 1, rank: 1, ndensity: 2, num_ms_combs: 1, mus: [2], ns: [4], ls: [0], ms_combs: [0], ctildes: [0.39710096046665833, 0.0041679675728773817]}
    - {mu0: 1, rank: 1, ndensity: 2, num_ms_combs: 1, mus: [2], ns: [5], ls: [0], ms_combs: [0], ctildes: [-0.24052460458603719, -0.47938842355863903]}
    - {mu0: 1, rank: 1, ndensity: 2, num_ms_combs: 1, mus: [2], ns: [6], ls: [0], ms_combs: [0], ctildes: [0.17228333885550623, 0.34691678750710758]}
    - {mu0: 1, rank: 1, ndensity: 2, num_ms_combs: 1, mus: [2], ns: [7], ls: [0], ms_combs: [0], ctildes: [-0.13746529030072882, -0.13515196550234551]}
    - {mu0: 1, rank: 2, ndensity: 2, num_ms_combs: 1, mus: [0, 0], ns: [1, 1], ls: [0, 0], ms_combs: [0, 0], ctildes: [0.57097453089641514, 0.19429672207434698]}
    - {mu0: 1, rank: 2, ndensity: 2, num_ms_combs: 2, mus: [0, 0], ns: [1, 1], ls: [1, 1], ms_combs: [0, 0, 1, -1], ctildes: [-0.20948077409101704, 0.26678801508500766, 0.41896154818203396, -0.5335760301700152]}
    - {mu0: 1, rank: 2, ndensity: 2, num_ms_combs: 3, mus: [0, 0], ns: [1, 1], ls: [2, 2], ms_combs: [0, 0, 1, -1, 2, -2], ctildes: [-0.0037366503228124012, 0.0068608297671693208, 0.0074733006456248032, -0.013721659534338643, -0.0074733006456248058, 0.013721659534338647]}
    - {mu0: 1, rank: 2, ndensity: 2, num_ms_combs: 1, mus: [0, 0], ns: [1, 2], ls: [0, 0], ms_combs: [0, 0], ctildes: [0.29762984865299102, 0.0997517858151203]}
    - {mu0: 1, rank: 2, ndensity: 2, num_ms_combs: 2, mus: [0, 0], ns: [1, 2], ls: [1, 1], ms_combs: [0, 0, 1, -1], ctildes: [-0.0034276209217272745, 0.13130427056131347, 0.0068552418434545473, -0.26260854112262688]}
    - {mu0: 1, rank: 2, ndensity: 2, num_ms_combs: 1, mus: [0, 0], ns: [1, 3], ls: [0, 0], ms_combs: [0, 0], ctildes: [-0.24839445064952334, 0.0044216698497313509]}
    - {mu0: 1, rank: 2, ndensity: 2, num_ms_combs: 2, mus: [0, 0], ns: [1, 3], ls: [1, 1], ms_combs: [0, 0, 1, -1], ctildes: [-0.14679040495658949, 0.099543151184870643, 0.29358080991317892, -0.19908630236974123]}
    - {mu0: 1, rank: 2, ndensity: 2, num_ms_combs: 1, mus: [0, 0], ns: [1, 4], ls: [0, 0], ms_combs: [0, 0], ctildes: [-1.055712919343551, -0.09871327990026782]}
    - {mu0: 1, rank: 2, ndensity: 2, num_ms_combs: 1, mus: [0, 0], ns: [1, 5], ls: [0, 0], ms_combs: [0, 0], ctildes: [0.23126181654358316, 0.039431934862295979]}
    - {mu0: 1, rank: 2, ndensity: 2, num_ms_combs: 1, mus: [0, 0], ns: [2, 2], ls: [0, 0], ms_combs: [0, 0], ctildes: [0.27299220396424179, -0.64426712643757489]}
    - {mu0: 1, rank: 2, ndensity: 2, num_ms_combs: 2, mus: [0, 0], ns: [2, 2], ls: [1, 1], ms_combs: [0, 0, 1, -1], ctildes: [0.24083758190439708, -0.27505646238685966, -0.4816751638087941, 0.5501129247737192]}
    - {mu0: 1, rank: 2, ndensity: 2, num_ms_combs: 1, mus: [0, 0], ns: [2, 3], ls: [0, 0], ms_combs: [0, 0], ctildes: [0.29830918620706559, -0.20285333692900159]}
    - {mu0: 1, rank: 2, ndensity: 2, num_ms_combs: 1, mus: [0, 0], ns: [2, 4], ls: [0, 0], ms_combs: [0, 0], ctildes: [-0.062458554981931813, 0.034574682263235373]}
    - {mu0: 1, rank: 2, ndensity: 2, num_ms_combs: 1, mus: [0, 0], ns: [3, 3], ls: [0, 0], ms_combs: [0, 0], ctildes: [-0.59294872039456881, 0.70966429674961262]}
    - {mu0: 1, rank: 2, ndensity: 2, num_ms_combs: 1, mus: [0, 1], ns: [1, 1], ls: [0, 0], ms_combs: [0, 0], ctildes: [0.1258857038674383, 0.056689786425081261]}
    - {mu0: 1, rank: 2, ndensity: 2, num_ms_combs: 2, mus: [0, 1], ns: [1, 1], ls: [1, 1], ms_combs: [0, 0, 1, -1], ctildes: [-0.16052219839986639, 0.039357717884472877, 0.32104439679973273, -0.078715435768945741]}
    - {mu0: 1, rank: 2, ndensity: 2, num_ms_combs: 3, mus: [0, 1], ns: [1, 1], ls: [2, 2], ms_combs: [0, 0, 1, -1, 2, -2], ctildes: [0.1284018528071264, 0.030963614202142945, -0.25680370561425281, -0.061927228404285904, 0.25680370561425292, 0.061927228404285918]}
    - {mu0: 1, rank: 2, ndensity: 2, num_ms_combs: 1, mus: [0, 1], ns: [1, 2], ls: [0, 0], ms_combs: [0, 0], ctildes: [0.02839723044996777, 0.070182466071547517]}
    - {mu0: 1, rank: 2, ndensity: 2, num_ms_combs: 2, mus: [0, 1], ns: [1, 2], ls: [1, 1], ms_combs: [0, 0, 1, -1], ctildes: [-0.1364641883294466, 0.054713295643342111, 0.27292837665889313, -0.10942659128668419]}
    - {mu0: 1, rank: 2, ndensity: 2, num_ms_combs: 1, mus: [0, 1], ns: [1, 3], ls: [0, 0], ms_combs: [0, 0], ctildes: [-0.10380201369421958, -0.041386106540238624]}
    - {mu0: 1, rank: 2, ndensity: 2, num_ms_combs: 2, mus: [0, 1], ns: [1, 3], ls: [1, 1], ms_combs: [0, 0, 1, -1], ctildes: [0.098297511457688183, 0.11036036020087148, -0.19659502291537631, -0.22072072040174293]}
    - {mu0: 1, rank: 2, ndensity: 2, num_ms_combs: 1, mus: [0, 1], ns: [1, 4], ls: [0, 0], ms_combs: [0, 0], ctildes: [0.1325625695970008, -0.012230472335686847]}
    - {mu0: 1, rank: 2, ndensity: 2, num_ms_combs: 1, mus: [0, 1], ns: [1, 5], ls: [0, 0], ms_combs: [0, 0], ctildes: [-0.014101055890717317, -0.072454476010787833]}
    - {mu0: 1, rank: 2, ndensity: 2, num_ms_combs: 1, mus: [0, 1], ns: [2, 1], ls: [0, 0], ms_combs: [0, 0], ctildes: [0.44908282122810639, 0.05286961049100132]}
    - {mu0: 1, rank: 2, ndensity: 2, num_ms_combs: 2, mus: [0, 1], ns: [2, 1], ls: [1, 1], ms_combs: [0, 0, 1, -1], ctildes: [0.010902107784151158, 0.064968621835433685, -0.021804215568302313, -0.12993724367086737]}
    - {mu0: 1, rank: 2, ndensity: 2, num_ms_combs: 1, mus: [0, 1], ns: [2, 2], ls: [0, 0], ms_combs: [0, 0], ctildes: [-0.13656554261630091, 0.16040920345711804]}
    - {mu0: 1, rank: 2, ndensity: 2, num_ms_combs: 2, mus: [0, 1], ns: [2, 2], ls: [1, 1], ms_combs: [0, 0, 1, -1], ctildes: [-0.11443719521865153, 0.037835925265478985, 0.22887439043730304, -0.075671850530957957]}
    - {mu0: 1, rank: 2, ndensity: 2, num_ms_combs: 1, mus: [0, 1], ns: [2, 3], ls: [0, 0], ms_combs: [0, 0], ctildes: [-0.35779342213834453, -0.11962179026436182]}
    - {mu0: 1, rank: 2, ndensity: 2, num_ms_combs: 1, mus: [0, 1], ns: [2, 4], ls: [0, 0], ms_combs: [0, 0], ctildes: [0.72872821108721864, -0.14771727941211499]}
    - {mu0: 1, rank: 2, ndensity: 2, num_ms_combs: 1, mus: [0, 1], ns: [3, 1], ls: [0, 0], ms_combs: [0, 0], ctildes: [0.32595261667144543, -0.050968993484059519]}
    - {mu0: 1, rank: 2, ndensity: 2, num_ms_combs: 2, mus: [0, 1], ns: [3, 1], ls: [1, 1], ms_combs: [0, 0, 1, -1], ctildes: [-0.41225940886078771, 0.14156075340863439, 0.82451881772157531, -0.28312150681726872]}
    - {mu0: 1, rank: 2, ndensity: 2, num_ms_combs: 1, mus: [0, 1], ns: [3, 2], ls: [0, 0], ms_combs: [0, 0], ctildes: [0.26733290951524391, 0.066520461035368045]}
    - {mu0: 1, rank: 2, ndensity: 2, num_ms_combs: 1, mus: [0, 1], ns: [3, 3], ls: [0, 0], ms_combs: [0, 0], ctildes: [-0.6060749256180008, -0.16185452960249208]}
    - {mu0: 1, rank: 2, ndensity: 2, num_ms_combs: 1, mus: [0, 1], ns: [4, 1], ls: [0, 0], ms_combs: [0, 0], ctildes: [0.25095775093669148, 0.16751205353502471]}
    - {mu0: 1, rank: 2, ndensity: 2, num_ms_combs: 1, mus: [0, 1], ns: [4, 2], ls: [0, 0], ms_combs: [0, 0], ctildes: [0.11332382433893262, 0.20603723464000112]}
    - {mu0: 1, rank: 2, ndensity: 2, num_ms_combs: 1, mus: [0, 2], ns: [1, 1], ls: [0, 0], ms_combs: [0, 0], ctildes: [0.91825680140125432, 0.29336067350030837]}
    - {mu0: 1, rank: 2, ndensity: 2, num_ms_combs: 2, mus: [0, 2], ns: [1, 1], ls: [1, 1], ms_combs: [0, 0, 1, -1], ctildes: [0.12944108528159029, -0.0085235824986441139, -0.25888217056318052, 0.017047164997288224]}
    - {mu0: 1, rank: 2, ndensity: 2, num_ms_combs: 3, mus: [0, 2], ns: [1, 1], ls: [2, 2], ms_combs: [0, 0, 1, -1, 2, -2], ctildes: [0.084025784370309012, 0.03424836486018059, -0.16805156874061805, -0.068496729720361194, 0.16805156874061808, 0.068496729720361207]}
    - {mu0: 1, rank: 2, ndensity: 2, num_ms_combs: 1, mus: [0, 2], ns: [1, 2], ls: [0, 0], ms_combs: [0, 0], ctildes: [0.058451245015276272, 0.1220888077828725]}
    - {mu0: 1, rank: 2, ndensity: 2, num_ms_combs: 2, mus: [0, 2], ns: [1, 2], ls: [1, 1], ms_combs: [0, 0, 1, -1], ctildes: [0.46464570863574134, -0.19370113276351067, -0.92929141727148246, 0.38740226552702128]}
    - {mu0: 1, rank: 2, ndensity: 2, num_ms_combs: 1, mus: [0, 2], ns: [1, 3], ls: [0, 0], ms_combs: [0, 0], ctildes: [0.28424370625698919, 0.57353227492219927]}
    - {mu0: 1, rank: 2, ndensity: 2, num_ms_combs: 2, mus: [0, 2], ns: [1, 3], ls: [1, 1], ms_combs: [0, 0, 1, -1], ctildes: [-0.14716739183051919, -0.12643912483621683, 0.29433478366103827, 0.25287824967243361]}
    - {mu0: 1, rank: 2, ndensity: 2, num_ms_combs: 1, mus: [0, 2], ns: [2, 1], ls: [0, 0], ms_combs: [0, 0], ctildes: [0.75537413786902408, 0.32243035415266191]}
    - {mu0: 1, rank: 2, ndensity: 2, num_ms_combs: 2, mus: [0, 2], ns: [2, 1], ls: [1, 1], ms_combs: [0, 0, 1, -1], ctildes: [-0.035588893395525262, 0.012690881429911701, 0.07117778679105051, -0.025381762859823399]}
    - {mu0: 1, rank: 2, ndensity: 2, num_ms_combs: 1, mus: [0, 2], ns: [2, 2], ls: [0, 0], ms_combs: [0, 0], ctildes: [-0.64990954463036332, -0.12931063889408853]}
    - {mu0: 1, rank: 2, ndensity: 2, num_ms_combs: 2, mus: [0, 2], ns: [2, 2], ls: [1, 1], ms_combs: [0, 0, 1, -1], ctildes: [0.24372232897936333, -0.18106202053140577, -0.48744465795872655, 0.36212404106281143]}
    - {mu0: 1, rank: 2, ndensity: 2, num_ms_combs: 1, mus: [0, 2], ns: [2, 3], ls: [0, 0], ms_combs: [0, 0], ctildes: [-0.26671426143247806, 0.72651779716149523]}
    - {mu0: 1, rank: 2, ndensity: 2, num_ms_combs: 1, mus: [0, 2], ns: [3, 1], ls: [0, 0], ms_combs: [0, 0], ctildes: [0.59323138629774363, 0.37696112578725821]}
    - {mu0: 1, rank: 2, ndensity: 2, num_ms_combs: 2, mus: [0, 2], ns: [3, 1], ls: [1, 1], ms_combs: [0, 0, 1, -1], ctildes: [-0.12854902596505083, 0.063947108215252693, 0.2570980519301016, -0.12789421643050536]}
    - {mu0: 1, rank: 2, ndensity: 2, num_ms_combs: 1, mus: [0, 2], ns: [3, 2], ls: [0, 0], ms_combs: [0, 0], ctildes: [-0.19669371835676366, -0.25164731609459517]}
    - {mu0: 1, rank: 2, ndensity: 2, num_ms_combs: 1, mus: [0, 2], ns: [3, 3], ls: [0, 0], ms_combs: [0, 0], ctildes: [-0.098448104381177307, 0.16450071164134852]}
    - {mu0: 1, rank: 2, ndensity: 2, num_ms_combs: 1, mus: [1, 1], ns: [1, 1], ls: [0, 0], ms_combs: [0, 0], ctildes: [0.078575419624374629, -0.0061223158498428755]}
    - {mu0: 1, rank: 2, ndensity: 2, num_ms_combs: 2, mus: [1, 1], ns: [1, 1], ls: [1, 1], ms_combs: [0, 0, 1, -1], ctildes: [0.093775896079869123, 0.039809830221275683, -0.18755179215973822, -0.079619660442551352]}
    - {mu0: 1, rank: 2, ndensity: 2, num_ms_combs: 3, mus: [1, 1], ns: [1, 1], ls: [2, 2], ms_combs: [0, 0, 1, -1, 2, -2], ctildes: [0.085738059378133599, 0.037526728972863146, -0.17147611875626723, -0.075053457945726293, 0.17147611875626725, 0.075053457945726321]}
    - {mu0: 1, rank: 2, ndensity: 2, num_ms_combs: 4, mus: [1, 1], ns: [1, 1], ls: [3, 3], ms_combs: [0, 0, 1, -1, 2, -2, 3, -3], ctildes: [0.085578416455760628, 0.039112575154876247, -0.17115683291152126, -0.078225150309752495, 0.17115683291152123, 0.078225150309752481, -0.17115683291152123, -0.078225150309752481]}
    - {mu0: 1, rank: 2, ndensity: 2, num_ms_combs: 1, mus: [1, 1], ns: [1, 2], ls: [0, 0], ms_combs: [0, 0], ctildes: [-0.020940449622910133, -0.045032948471949552]}
    - {mu0: 1, rank: 2, ndensity: 2, num_ms_combs: 2, mus: [1, 1], ns: [1, 2], ls: [1, 1], ms_combs: [0, 0, 1, -1], ctildes: [0.018919620387348974, 0.02525206628160841, -0.037839240774697941, -0.050504132563216814]}
    - {mu0: 1, rank: 2, ndensity: 2, num_ms_combs: 3, mus: [1, 1], ns: [1, 2], ls: [2, 2], ms_combs: [0, 0, 1, -1, 2, -2], ctildes: [0.0073195678245271184, 0.014542110516664793, -0.014639135649054238, -0.029084221033329589, 0.014639135649054242, 0.029084221033329596]}
    - {mu0: 1, rank: 2, ndensity: 2, num_ms_combs: 1, mus: [1, 1], ns: [1, 3], ls: [0, 0], ms_combs: [0, 0], ctildes: [-0.18982127946605704, -0.079736973207816766]}
    - {mu0: 1, rank: 2, ndensity: 2, num_ms_combs: 2, mus: [1, 1], ns: [1, 3], ls: [1, 1], ms_combs: [0, 0, 1, -1], ctildes: [-0.075009458568944101, -0.036671000337342163, 0.15001891713788817, 0.073342000674684313]}
    - {mu0: 1, rank: 2, ndensity: 2, num_ms_combs: 3, mus: [1, 1], ns: [1, 3], ls: [2, 2], ms_combs: [0, 0, 1, -1, 2, -2], ctildes: [-0.086202561039579795, -0.038277556654182664, 0.17240512207915962, 0.076555113308365341, -0.17240512207915965, -0.076555113308365355]}
    - {mu0: 1, rank: 2, ndensity: 2, num_ms_combs: 1, mus: [1, 1], ns: [1, 4], ls: [0, 0], ms_combs: [0, 0], ctildes: [0.058247336609350164, 0.015493616797615047]}
    - {mu0: 1, rank: 2, ndensity: 2, num_ms_combs: 2, mus: [1, 1], ns: [1, 4], ls: [1, 1], ms_combs: [0, 0, 1, -1], ctildes: [0.018260933105789235, -0.034014773932501588, -0.036521866211578463, 0.068029547865003162]}
    - {mu0: 1, rank: 2, ndensity: 2, num_ms_combs: 1, mus: [1, 1], ns: [1, 5], ls: [0, 0], ms_combs: [0, 0], ctildes: [0.18643614630998204, 0.12650195624250846]}
    - {mu0: 1, rank: 2, ndensity: 2, num_ms_combs: 2, mus: [1, 1], ns: [1, 5], ls: [1, 1], ms_combs: [0, 0, 1, -1], ctildes: [0.028049075892607956, -0.00040119778409791263, -0.056098151785215898, 0.00080239556819582504]}
    - {mu0: 1, rank: 2, ndensity: 2, num_ms_combs: 1, mus: [1, 1], ns: [1, 6], ls: [0, 0], ms_combs: [0, 0], ctildes: [0.033844319343265095, 0.09385345940507904]}
    - {mu0: 1, rank: 2, ndensity: 2, num_ms_combs: 1, mus: [1, 1], ns: [2, 2], ls: [0, 0], ms_combs: [0, 0], ctildes: [-0.0032726240958058875, -0.039451714319275043]}
    - {mu0: 1, rank: 2, ndensity: 2, num_ms_combs: 2, mus: [1, 1], ns: [2, 2], ls: [1, 1], ms_combs: [0, 0, 1, -1], ctildes: [0.020768523916067864, 0.0084519330749368675, -0.041537047832135722, -0.016903866149873732]}
    - {mu0: 1, rank: 2, ndensity: 2, num_ms_combs: 3, mus: [1, 1], ns: [2, 2], ls: [2, 2], ms_combs: [0, 0, 1, -1, 2, -2], ctildes: [-0.0058293697163082324, 0.0025540789969791815, 0.011658739432616467, -0.005108157993958363, -0.011658739432616468, 0.0051081579939583647]}
    - {mu0: 1, rank: 2, ndensity: 2, num_ms_combs: 1, mus: [1, 1], ns: [2, 3], ls: [0, 0], ms_combs: [0, 0], ctildes: [-0.023118414053751025, -0.032590505573113306]}
    - {mu0: 1, rank: 2, ndensity: 2, num_ms_combs: 2, mus: [1, 1], ns: [2, 3], ls: [1, 1], ms_combs: [0, 0, 1, -1], ctildes: [-0.023672808375683828, -0.047789979901049218, 0.047345616751367649, 0.095579959802098421]}
    - {mu0: 1, rank: 2, ndensity: 2, num_ms_combs: 1, mus: [1, 1], ns: [2, 4], ls: [0, 0], ms_combs: [0, 0], ctildes: [0.04255928145166437, 0.016209839352655523]}
    - {mu0: 1, rank: 2, ndensity: 2, num_ms_combs: 2, mus: [1, 1], ns: [2, 4], ls: [1, 1], ms_combs: [0, 0, 1, -1], ctildes: [-0.028622424048472855, -0.053191406590782107, 0.057244848096945695, 0.10638281318156419]}
    - {mu0: 1, rank: 2, ndensity: 2, num_ms_combs: 1, mus: [1, 1], ns: [2, 5], ls: [0, 0], ms_combs: [0, 0], ctildes: [0.067498497969313107, 0.056757962636230147]}
    - {mu0: 1, rank: 2, ndensity: 2, num_ms_combs: 1, mus: [1, 1], ns: [2, 6], ls: [0, 0], ms_combs: [0, 0], ctildes: [0.032312055683841608, 0.034356455539089552]}
    - {mu0: 1, rank: 2, ndensity: 2, num_ms_combs: 1, mus: [1, 1], ns: [3, 3], ls: [0, 0], ms_combs: [0, 0], ctildes: [0.13714440035508452, 0.010239465384114018]}
    - {mu0: 1, rank: 2, ndensity: 2, num_ms_combs: 2, mus: [1, 1], ns: [3, 3], ls: [1, 1], ms_combs: [0, 0, 1, -1], ctildes: [0.047996038797271198, -0.01145120920456354, -0.095992077594542369, 0.022902418409127077]}
    - {mu0: 1, rank: 2, ndensity: 2, num_ms_combs: 1, mus: [1, 1], ns: [3, 4], ls: [0, 0], ms_combs: [0, 0], ctildes: [0.02944847521604723, 0.041046666361014408]}
    - {mu0: 1, rank: 2, ndensity: 2, num_ms_combs: 1, mus: [1, 1], ns: [3, 5], ls: [0, 0], ms_combs: [0, 0], ctildes: [0.065656861447890513, 0.050906467224675213]}
    - {mu0: 1, rank: 2, ndensity: 2, num_ms_combs: 1, mus: [1, 1], ns: [4, 4], ls: [0, 0], ms_combs: [0, 0], ctildes: [0.19391650053061996, 0.11515705810637519]}
    - {mu0: 1, rank: 2, ndensity: 2, num_ms_combs: 1, mus: [1, 2], ns: [1, 1], ls: [0, 0], ms_combs: [0, 0], ctildes: [-0.005875958478972554, 0.053488667760625969]}
    - {mu0: 1, rank: 2, ndensity: 2, num_ms_combs: 2, mus: [1, 2], ns: [1, 1], ls: [1, 1], ms_combs: [0, 0, 1, -1], ctildes: [0.095292893394840109, -0.036124143909397749, -0.19058578678968019, 0.072248287818795484]}
    - {mu0: 1, rank: 2, ndensity: 2, num_ms_combs: 3, mus: [1, 2], ns: [1, 1], ls: [2, 2], ms_combs: [0, 0, 1, -1, 2, -2], ctildes: [-0.30199848358607628, -0.060352636223119996, 0.60399696717215257, 0.12070527244624001, -0.60399696717215279, -0.12070527244624003]}
    - {mu0: 1, rank: 2, ndensity: 2, num_ms_combs: 1, mus: [1, 2], ns: [1, 2], ls: [0, 0], ms_combs: [0, 0], ctildes: [0.12327935988400013, 0.031333693197349494]}
    - {mu0: 1, rank: 2, ndensity: 2, num_ms_combs: 2, mus: [1, 2], ns: [1, 2], ls: [1, 1], ms_combs: [0, 0, 1, -1], ctildes: [-0.18701384852255701, -0.15862709483355927, 0.37402769704511396, 0.31725418966711849]}
    - {mu0: 1, rank: 2, ndensity: 2, num_ms_combs: 1, mus: [1, 2], ns: [1, 3], ls: [0, 0], ms_combs: [0, 0], ctildes: [-0.055259105542833323, -0.064300043855024025]}
    - {mu0: 1, rank: 2, ndensity: 2, num_ms_combs: 2, mus: [1, 2], ns: [1, 3], ls: [1, 1], ms_combs: [0, 0, 1, -1], ctildes: [-0.12959784995712809, -0.10932481252906635, 0.25919569991425612, 0.21864962505813268]}
    - {mu0: 1, rank: 2, ndensity: 2, num_ms_combs: 1, mus: [1, 2], ns: [1, 4], ls: [0, 0], ms_combs: [0, 0], ctildes: [0.13090019041192685, -0.096750199084194161]}
    - {mu0: 1, rank: 2, ndensity: 2, num_ms_combs: 1, mus: [1, 2], ns: [1, 5], ls: [0, 0], ms_combs: [0, 0], ctildes: [-0.22052121721323165, -0.0074680465731618165]}
    - {mu0: 1, rank: 2, ndensity: 2, num_ms_combs: 1, mus: [1, 2], ns: [2, 1], ls: [0, 0], ms_combs: [0, 0], ctildes: [0.080519847051326116, 0.14079674742494683]}
    - {mu0: 1, rank: 2, ndensity: 2, num_ms_combs: 2, mus: [1, 2], ns: [2, 1], ls: [1, 1], ms_combs: [0, 0, 1, -1], ctildes: [0.10720105407903258, -0.054820158112263505, -0.2144021081580651, 0.109640316224527]}
    - {mu0: 1, rank: 2, ndensity: 2, num_ms_combs: 1, mus: [1, 2], ns: [2, 2], ls: [0, 0], ms_combs: [0, 0], ctildes: [-0.099884839852803498, 0.13765517377427403]}
    - {mu0: 1, rank: 2, ndensity: 2, num_ms_combs: 2, mus: [1, 2], ns: [2, 2], ls: [1, 1], ms_combs: [0, 0, 1, -1], ctildes: [-0.31973395750589695, -0.2312949774020954, 0.63946791501179379, 0.46258995480419074]}
    - {mu0: 1, rank: 2, ndensity: 2, num_ms_combs: 1, mus: [1, 2], ns: [2, 3], ls: [0, 0], ms_combs: [0, 0], ctildes: [0.089341384558550133, 0.18199281639727818]}
    - {mu0: 1, rank: 2, ndensity: 2, num_ms_combs: 1, mus: [1, 2], ns: [2, 4], ls: [0, 0], ms_combs: [0, 0], ctildes: [-0.064723247411257956, -0.27580264184080827]}
    - {mu0: 1, rank: 2, ndensity: 2, num_ms_combs: 1, mus: [1, 2], ns: [3, 1], ls: [0, 0], ms_combs: [0, 0], ctildes: [0.091011199442137328, 0.085295992101799029]}
    - {mu0: 1, rank: 2, ndensity: 2, num_ms_combs: 2, mus: [1, 2], ns: [3, 1], ls: [1, 1], ms_combs: [0, 0, 1, -1], ctildes: [-0.13902030013356997, -0.080901374394386383, 0.27804060026713989, 0.16180274878877274]}
    - {mu0: 1, rank: 2, ndensity: 2, num_ms_combs: 1, mus: [1, 2], ns: [3, 2], ls: [0, 0], ms_combs: [0, 0], ctildes: [-0.29568993360893264, 0.018526777015236966]}
    - {mu0: 1, rank: 2, ndensity: 2, num_ms_combs: 1, mus: [1, 2], ns: [3, 3], ls: [0, 0], ms_combs: [0, 0], ctildes: [-0.13317895339379215, 0.16827113432831883]}
    - {mu0: 1, rank: 2, ndensity: 2, num_ms_combs: 1, mus: [1, 2], ns: [4, 1], ls: [0, 0], ms_combs: [0, 0], ctildes: [0.15957129643564399, 0.0085828843557733282]}
    - {mu0: 1, rank: 2, ndensity: 2, num_ms_combs: 1, mus: [1, 2], ns: [4, 2], ls: [0, 0], ms_combs: [0, 0], ctildes: [0.11156954420140992, -0.24928220329498632]}
    - {mu0: 1, rank: 2, ndensity: 2, num_ms_combs: 1, mus: [1, 2], ns: [5, 1], ls: [0, 0], ms_combs: [0, 0], ctildes: [0.28628753893256348, 0.27501124741213001]}
    - {mu0: 1, rank: 2, ndensity: 2, num_ms_combs: 1, mus: [2, 2], ns: [1, 1], ls: [0, 0], ms_combs: [0, 0], ctildes: [1.4103437446410156, 0.64266108078013684]}
    - {mu0: 1, rank: 2, ndensity: 2, num_ms_combs: 2, mus: [2, 2], ns: [1, 1], ls: [1, 1], ms_combs: [0, 0, 1, -1], ctildes: [0.29412498827801375, 0.42268123995873047, -0.5882499765560274, -0.84536247991746083]}
    - {mu0: 1, rank: 2, ndensity: 2, num_ms_combs: 3, mus: [2, 2], ns: [1, 1], ls: [2, 2], ms_combs: [0, 0, 1, -1, 2, -2], ctildes: [-0.12209742902501701, 0.26789372859445842, 0.24419485805003405, -0.53578745718891685, -0.2441948580500341, 0.53578745718891707]}
    - {mu0: 1, rank: 2, ndensity: 2, num_ms_combs: 1, mus: [2, 2], ns: [1, 2], ls: [0, 0], ms_combs: [0, 0], ctildes: [0.22116211876390518, 0.038519459725480522]}
    - {mu0: 1, rank: 2, ndensity: 2, num_ms_combs: 2, mus: [2, 2], ns: [1, 2], ls: [1, 1], ms_combs: [0, 0, 1, -1], ctildes: [-0.041337827118432077, 0.050604127707565991, 0.082675654236864127, -0.10120825541513195]}
    - {mu0: 1, rank: 2, ndensity: 2, num_ms_combs: 1, mus: [2, 2], ns: [1, 3], ls: [0, 0], ms_combs: [0, 0], ctildes: [0.8847086053050609, 0.50494973659033504]}
    - {mu0: 1, rank: 2, ndensity: 2, num_ms_combs: 2, mus: [2, 2], ns: [1, 3], ls: [1, 1], ms_combs: [0, 0, 1, -1], ctildes: [0.21772028830703538, -0.1062019942073925, -0.43544057661407065, 0.21240398841478497]}
    - {mu0: 1, rank: 2, ndensity: 2, num_ms_combs: 1, mus: [2, 2], ns: [1, 4], ls: [0, 0], ms_combs: [0, 0], ctildes: [0.11671182250456741, 0.73897872923324281]}
    - {mu0: 1, rank: 2, ndensity: 2, num_ms_combs: 1, mus: [2, 2], ns: [1, 5], ls: [0, 0], ms_combs: [0, 0], ctildes: [-0.20786743678898009, 0.20269978187390378]}
    - {mu0: 1, rank: 2, ndensity: 2, num_ms_combs: 1, mus: [2, 2], ns: [2, 2], ls: [0, 0], ms_combs: [0, 0], ctildes: [0.12801904994597615, -0.37471269158240461]}
    - {mu0: 1, rank: 2, ndensity: 2, num_ms_combs: 2, mus: [2, 2], ns: [2, 2], ls: [1, 1], ms_combs: [0, 0, 1, -1], ctildes: [0.32518515065721554, -0.10098747157156891, -0.65037030131443097, 0.20197494314313777]}
    - {mu0: 1, rank: 2, ndensity: 2, num_ms_combs: 1, mus: [2, 2], ns: [2, 3], ls: [0, 0], ms_combs: [0, 0], ctildes: [0.45899633724632855, -0.23577391254282734]}
    - {mu0: 1, rank: 2, ndensity: 2, num_ms_combs: 1, mus: [2, 2], ns: [2, 4], ls: [0, 0], ms_combs: [0, 0], ctildes: [-0.5581786967640523, -0.27272587478622956]}
    - {mu0: 1, rank: 3, ndensity: 2, num_ms_combs: 1, mus: [0, 0, 0], ns: [1, 1, 1], ls: [0, 0, 0], ms_combs: [0, 0, 0], ctildes: [0.55260105868604914, 0.21660063109194475]}
    - {mu0: 1, rank: 3, ndensity: 2, num_ms_combs: 1, mus: [0, 0, 0], ns: [1, 1, 2], ls: [0, 0, 0], ms_combs: [0, 0, 0], ctildes: [-0.018100075777751006, 0.042549921127469137]}
    - {mu0: 1, rank: 3, ndensity: 2, num_ms_combs: 1, mus: [0, 0, 1], ns: [1, 1, 1], ls: [0, 0, 0], ms_combs: [0, 0, 0], ctildes: [-0.16189156994043064, 0.015169981619087947]}
    - {mu0: 1, rank: 3, ndensity: 2, num_ms_combs: 1, mus: [0, 0, 1], ns: [1, 1, 2], ls: [0, 0, 0], ms_combs: [0, 0, 0], ctildes: [-0.22264540128908317, -0.03709005831423131]}
    - {mu0: 1, rank: 3, ndensity: 2, num_ms_combs: 1, mus: [0, 0, 1], ns: [1, 2, 1], ls: [0, 0, 0], ms_combs: [0, 0, 0], ctildes: [0.012582946322276726, 0.0028954786928420068]}
    - {mu0: 1, rank: 3, ndensity: 2, num_ms_combs: 1, mus: [0, 0, 2], ns: [1, 1, 1], ls: [0, 0, 0], ms_combs: [0, 0, 0], ctildes: [0.77471206865190267, 0.26467661817999349]}
    - {mu0: 1, rank: 3, ndensity: 2, num_ms_combs: 2, mus: [0, 0, 2], ns: [1, 1, 1], ls: [0, 1, 1], ms_combs: [0, 0, 0, 0, 1, -1], ctildes: [-0.18979116312052838, -0.078599694438961171, 0.3795823262410567, 0.15719938887792231]}
    - {mu0: 1, rank: 3, ndensity: 2, num_ms_combs: 2, mus: [0, 0, 2], ns: [1, 1, 1], ls: [1, 1, 0], ms_combs: [0, 0, 0, 1, -1, 0], ctildes: [-0.064738176037892975, 0.13041908904961794, 0.12947635207578592, -0.26083817809923582]}
    - {mu0: 1, rank: 3, ndensity: 2, num_ms_combs: 1, mus: [0, 0, 2], ns: [1, 1, 2], ls: [0, 0, 0], ms_combs: [0, 0, 0], ctildes: [-0.2757789250979491, 0.086632744611486082]}
    - {mu0: 1, rank: 3, ndensity: 2, num_ms_combs: 1, mus: [0, 0, 2], ns: [1, 1, 3], ls: [0, 0, 0], ms_combs: [0, 0, 0], ctildes: [-0.15534913297794961, 0.43727479158583427]}
    - {mu0: 1, rank: 3, ndensity: 2, num_ms_combs: 1, mus: [0, 0, 2], ns: [1, 2, 1], ls: [0, 0, 0], ms_combs: [0, 0, 0], ctildes: [-0.049362092884025113, 0.18856573348363878]}
    - {mu0: 1, rank: 3, ndensity: 2, num_ms_combs: 1, mus: [0, 0, 2], ns: [1, 2, 2], ls: [0, 0, 0], ms_combs: [0, 0, 0], ctildes: [0.33101525994657499, 0.030188864268832601]}
    - {mu0: 1, rank: 3, ndensity: 2, num_ms_combs: 1, mus: [0, 0, 2], ns: [1, 3, 1], ls: [0, 0, 0], ms_combs: [0, 0, 0], ctildes: [-0.43924731276313972, 0.16653769529735285]}
    - {mu0: 1, rank: 3, ndensity: 2, num_ms_combs: 1, mus: [0, 0, 2], ns: [2, 2, 1], ls: [0, 0, 0], ms_combs: [0, 0, 0], ctildes: [0.51016061207600927, 0.043421791462150826]}
    - {mu0: 1, rank: 3, ndensity: 2, num_ms_combs: 1, mus: [0, 1, 1], ns: [1, 1, 1], ls: [0, 0, 0], ms_combs: [0, 0, 0], ctildes: [0.06960304896021928, 0.013419116559805818]}
    - {mu0: 1, rank: 3, ndensity: 2, num_ms_combs: 1, mus: [0, 1, 1], ns: [1, 1, 2], ls: [0, 0, 0], ms_combs: [0, 0, 0], ctildes: [-0.036559987400594969, -0.0075384444439808409]}
    - {mu0: 1, rank: 3, ndensity: 2, num_ms_combs: 1, mus: [0, 1, 1], ns: [2, 1, 1], ls: [0, 0, 0], ms_combs: [0, 0, 0], ctildes: [0.20183214368438482, -0.0030620359290906203]}
    - {mu0: 1, rank: 3, ndensity: 2, num_ms_combs: 1, mus: [0, 1, 2], ns: [1, 1, 1], ls: [0, 0, 0], ms_combs: [0, 0, 0], ctildes: [-0.20964709446103896, 0.041683057505754018]}
    - {mu0: 1, rank: 3, ndensity: 2, num_ms_combs: 2, mus: [0, 1, 2], ns: [1, 1, 1], ls: [0, 1, 1], ms_combs: [0, 0, 0, 0, 1, -1], ctildes: [0.16205939141002734, 0.015733141804166073, -0.32411878282005463, -0.031466283608332139]}
    - {mu0: 1, rank: 3, ndensity: 2, num_ms_combs: 2, mus: [0, 1, 2], ns: [1, 1, 1], ls: [1, 0, 1], ms_combs: [0, 0, 0, 1, 0, -1], ctildes: [-0.18051814130279747, -0.029535307457970766, 0.36103628260559489, 0.059070614915941518]}
    - {mu0: 1, rank: 3, ndensity: 2, num_ms_combs: 2, mus: [0, 1, 2], ns: [1, 1, 1], ls: [1, 1, 0], ms_combs: [0, 0, 0, 1, -1, 0], ctildes: [-0.20229768972320855, -0.011431737132246753, 0.40459537944641699, 0.022863474264493502]}
    - {mu0: 1, rank: 3, ndensity: 2, num_ms_combs: 1, mus: [0, 1, 2], ns: [1, 1, 2], ls: [0, 0, 0], ms_combs: [0, 0, 0], ctildes: [0.0019309625303866279, 0.057000930879934374]}
    - {mu0: 1, rank: 3, ndensity: 2, num_ms_combs: 1, mus: [0, 1, 2], ns: [1, 1, 3], ls: [0, 0, 0], ms_combs: [0, 0, 0], ctildes: [-0.39101012449587275, 0.020977911068215407]}
    - {mu0: 1, rank: 3, ndensity: 2, num_ms_combs: 1, mus: [0, 1, 2], ns: [1, 2, 1], ls: [0, 0, 0], ms_combs: [0, 0, 0], ctildes: [-0.030086926638876355, 0.04985541367470471]}
    - {mu0: 1, rank: 3, ndensity: 2, num_ms_combs: 1, mus: [0, 1, 2], ns: [1, 2, 2], ls: [0, 0, 0], ms_combs: [0, 0, 0], ctildes: [-0.29160236043526144, 0.05129468483992812]}
    - {mu0: 1, rank: 3, ndensity: 2, num_ms_combs: 1, mus: [0, 1, 2], ns: [1, 3, 1], ls: [0, 0, 0], ms_combs: [0, 0, 0], ctildes: [0.16360912692741861, -0.062140953650273376]}
    - {mu0: 1, rank: 3, ndensity: 2, num_ms_combs: 1, mus: [0, 1, 2], ns: [2, 1, 1], ls: [0, 0, 0], ms_combs: [0, 0, 0], ctildes: [-0.094301796187920409, 0.052943491038987468]}
    - {mu0: 1, rank: 3, ndensity: 2, num_ms_combs: 1, mus: [0, 1, 2], ns: [2, 1, 2], ls: [0, 0, 0], ms_combs: [0, 0, 0], ctildes: [0.22017503073890585, -0.0073994639962251503]}
    - {mu0: 1, rank: 3, ndensity: 2, num_ms_combs: 1, mus: [0, 1, 2], ns: [2, 2, 1], ls: [0, 0, 0], ms_combs: [0, 0, 0], ctildes: [-0.50376504531365829, 0.12411261094607526]}
    - {mu0: 1, rank: 3, ndensity: 2, num_ms_combs: 1, mus: [0, 1, 2], ns: [3, 1, 1], ls: [0, 0, 0], ms_combs: [0, 0, 0], ctildes: [0.46230176192902511, 0.032535651124691874]}
    - {mu0: 1, rank: 3, ndensity: 2, num_ms_combs: 1, mus: [0, 2, 2], ns: [1, 1, 1], ls: [0, 0, 0], ms_combs: [0, 0, 0], ctildes: [0.28318942521803181, 0.16496568584970084]}
    - {mu0: 1, rank: 3, ndensity: 2, num_ms_combs: 2, mus: [0, 2, 2], ns: [1, 1, 1], ls: [0, 1, 1], ms_combs: [0, 0, 0, 0, 1, -1], ctildes: [-0.39557373745958174, 0.085853348689945444, 0.79114747491916326, -0.17170669737989086]}
    - {mu0: 1, rank: 3, ndensity: 2, num_ms_combs: 2, mus: [0, 2, 2], ns: [1, 1, 1], ls: [1, 0, 1], ms_combs: [0, 0, 0, 1, 0, -1], ctildes: [0.07749900761861489, -0.023817465197527778, -0.15499801523722975, 0.04763493039505555]}
    - {mu0: 1, rank: 3, ndensity: 2, num_ms_combs: 1, mus: [0, 2, 2], ns: [1, 1, 2], ls: [0, 0, 0], ms_combs: [0, 0, 0], ctildes: [0.12271041820428319, -0.28179829317452215]}
    - {mu0: 1, rank: 3, ndensity: 2, num_ms_combs: 1, mus: [0, 2, 2], ns: [1, 1, 3], ls: [0, 0, 0], ms_combs: [0, 0, 0], ctildes: [0.3283922266341881, -0.095614821127793223]}
    - {mu0: 1, rank: 3, ndensity: 2, num_ms_combs: 1, mus: [0, 2, 2], ns: [1, 2, 2], ls: [0, 0, 0], ms_combs: [0, 0, 0], ctildes: [0.10655224141239009, -0.29350716684141726]}
    - {mu0: 1, rank: 3, ndensity: 2, num_ms_combs: 1, mus: [0, 2, 2], ns: [2, 1, 1], ls: [0, 0, 0], ms_combs: [0, 0, 0], ctildes: [-0.9796605016519514, -0.064421521352565445]}
    - {mu0: 1, rank: 3, ndensity: 2, num_ms_combs: 1, mus: [0, 2, 2], ns: [2, 1, 2], ls: [0, 0, 0], ms_combs: [0, 0, 0], ctildes: [-0.54633965196584899, -0.98677774609960289]}
    - {mu0: 1, rank: 3, ndensity: 2, num_ms_combs: 1, mus: [0, 2, 2], ns: [3, 1, 1], ls: [0, 0, 0], ms_combs: [0, 0, 0], ctildes: [-0.2093091458113594, 0.098740649697251617]}
    - {mu0: 1, rank: 3, ndensity: 2, num_ms_combs: 1, mus: [1, 1, 1], ns: [1, 1, 1], ls: [0, 0, 0], ms_combs: [0, 0, 0], ctildes: [0.041333550611110999, 0.0035194224599139593]}
    - {mu0: 1, rank: 3, ndensity: 2, num_ms_combs: 2, mus: [1, 1, 1], ns: [1, 1, 1], ls: [0, 1, 1], ms_combs: [0, 0, 0, 0, 1, -1], ctildes: [0.048098193661243814, 0.015043984507500397, -0.096196387322487614, -0.030087969015000791]}
    - {mu0: 1, rank: 3, ndensity: 2, num_ms_combs: 1, mus: [1, 1, 1], ns: [1, 1, 2], ls: [0, 0, 0], ms_combs: [0, 0, 0], ctildes: [-0.0011079317092673438, -0.0027488923204851048]}
    - {mu0: 1, rank: 3, ndensity: 2, num_ms_combs: 2, mus: [1, 1, 1], ns: [1, 1, 2], ls: [0, 1, 1], ms_combs: [0, 0, 0, 0, 1, -1], ctildes: [0.011202497123232747, 0.0008158417392110333, -0.022404994246465491, -0.0016316834784220664]}
    - {mu0: 1, rank: 3, ndensity: 2, num_ms_combs: 2, mus: [1, 1, 1], ns: [1, 1, 2], ls: [1, 1, 0], ms_combs: [0, 0, 0, 1, -1, 0], ctildes: [0.010661373721653234, 0.0030358831368465168, -0.021322747443306461, -0.0060717662736930328]}
    - {mu0: 1, rank: 3, ndensity: 2, num_ms_combs: 1, mus: [1, 1, 1], ns: [1, 1, 3], ls: [0, 0, 0], ms_combs: [0, 0, 0], ctildes: [-0.064004030213062724, -0.021556546770053617]}
    - {mu0: 1, rank: 3, ndensity: 2, num_ms_combs: 1, mus: [1, 1, 1], ns: [1, 1, 4], ls: [0, 0, 0], ms_combs: [0, 0, 0], ctildes: [0.015971077704708982, -0.0013527353615869844]}
    - {mu0: 1, rank: 3, ndensity: 2, num_ms_combs: 1, mus: [1, 1, 1], ns: [1, 2, 2], ls: [0, 0, 0], ms_combs: [0, 0, 0], ctildes: [-0.0045961654502247344, -0.015564715963424498]}
    - {mu0: 1, rank: 3, ndensity: 2, num_ms_combs: 1, mus: [1, 1, 1], ns: [1, 2, 3], ls: [0, 0, 0], ms_combs: [0, 0, 0], ctildes: [-0.034887183464079777, -0.021851032353648107]}
    - {mu0: 1, rank: 3, ndensity: 2, num_ms_combs: 1, mus: [1, 1, 1], ns: [2, 2, 2], ls: [0, 0, 0], ms_combs: [0, 0, 0], ctildes: [-0.0045465336715456725, -0.023020717163437461]}
    - {mu0: 1, rank: 3, ndensity: 2, num_ms_combs: 1, mus: [1, 1, 2], ns: [1, 1, 1], ls: [0, 0, 0], ms_combs: [0, 0, 0], ctildes: [0.036390537424054036, 0.012739840367859714]}
    - {mu0: 1, rank: 3, ndensity: 2, num_ms_combs: 1, mus: [1, 1, 2], ns: [1, 1, 2], ls: [0, 0, 0], ms_combs: [0, 0, 0], ctildes: [0.13116037267864475, 0.0055674677667518525]}
    - {mu0: 1, rank: 3, ndensity: 2, num_ms_combs: 1, mus: [1, 1, 2], ns: [1, 2, 1], ls: [0, 0, 0], ms_combs: [0, 0, 0], ctildes: [-0.072318761997961709, -0.011033484751944888]}
    - {mu0: 1, rank: 3, ndensity: 2, num_ms_combs: 1, mus: [1, 2, 2], ns: [1, 1, 1], ls: [0, 0, 0], ms_combs: [0, 0, 0], ctildes: [-0.64434251163143763, 0.019056188881551091]}
    - {mu0: 1, rank: 3, ndensity: 2, num_ms_combs: 1, mus: [1, 2, 2], ns: [1, 1, 2], ls: [0, 0, 0], ms_combs: [0, 0, 0], ctildes: [-0.29673659950081521, 0.037462330403150258]}
    - {mu0: 1, rank: 3, ndensity: 2, num_ms_combs: 1, mus: [1, 2, 2], ns: [2, 1, 1], ls: [0, 0, 0], ms_combs: [0, 0, 0], ctildes: [-0.10619077798600164, 0.1687346413955019]}
    - {mu0: 1, rank: 3, ndensity: 2, num_ms_combs: 1, mus: [2, 2, 2], ns: [1, 1, 1], ls: [0, 0, 0], ms_combs: [0, 0, 0], ctildes: [0.24253579888361723, 0.71922145651293612]}
    - {mu0: 1, rank: 3, ndensity: 2, num_ms_combs: 1, mus: [2, 2, 2], ns: [1, 1, 2], ls: [0, 0, 0], ms_combs: [0, 0, 0], ctildes: [-0.67314779709520045, -0.067166038749389104]}
    - {mu0: 1, rank: 4, ndensity: 2, num_ms_combs: 1, mus: [0, 0, 0, 2], ns: [1, 1, 1, 1], ls: [0, 0, 0, 0], ms_combs: [0, 0, 0, 0], ctildes: [0.24916546782094059, 0.28242489408797017]}
    - {mu0: 1, rank: 4, ndensity: 2, num_ms_combs: 1, mus: [0, 0, 1, 2], ns: [1, 1, 1, 1], ls: [0, 0, 0, 0], ms_combs: [0, 0, 0, 0], ctildes: [-0.75340935575709145, -0.011627250106474914]}
    - {mu0: 1, rank: 4, ndensity: 2, num_ms_combs: 1, mus: [0, 0, 2, 2], ns: [1, 1, 1, 1], ls: [0, 0, 0, 0], ms_combs: [0, 0, 0, 0], ctildes: [-0.9212551999397588, 0.15785779280482534]}
    - {mu0: 1, rank: 4, ndensity: 2, num_ms_combs: 1, mus: [1, 1, 1, 1], ns: [1, 1, 1, 1], ls: [0, 0, 0, 0], ms_combs: [0, 0, 0, 0], ctildes: [0.014489825338528847, -0.0010355156760658111]}
    - {mu0: 1, rank: 4, ndensity: 2, num_ms_combs: 1, mus: [1, 1, 1, 1], ns: [1, 1, 1, 2], ls: [0, 0, 0, 0], ms_combs: [0, 0, 0, 0], ctildes: [-0.0011913176993099579, -0.00045767831806687654]}
  2:
    - {mu0: 2, rank: 1, ndensity: 2, num_ms_combs: 1, mus: [0], ns: [1], ls: [0], ms_combs: [0], ctildes: [-1.091664812767424, -2.2469473733378287]}
    - {mu0: 2, rank: 1, ndensity: 2, num_ms_combs: 1, mus: [0], ns: [2], ls: [0], ms_combs: [0], ctildes: [-1.0430228485019419, -2.3201327923724775]}
    - {mu0: 2, rank: 1, ndensity: 2, num_ms_combs: 1, mus: [0], ns: [3], ls: [0], ms_combs: [0], ctildes: [2.6657135482634993, 0.80806953621907063]}
    - {mu0: 2, rank: 1, ndensity: 2, num_ms_combs: 1, mus: [0], ns: [4], ls: [0], ms_combs: [0], ctildes: [-2.48129001465542, 0.28192191442305226]}
    - {mu0: 2, rank: 1, ndensity: 2, num_ms_combs: 1, mus: [0], ns: [5], ls: [0], ms_combs: [0], ctildes: [1.0796609980348535, -0.6802858753844131]}
    - {mu0: 2, rank: 1, ndensity: 2, num_ms_combs: 1, mus: [0], ns: [6], ls: [0], ms_combs: [0], ctildes: [0.087552809144881866, -0.62475423291399501]}
    - {mu0: 2, rank: 1, ndensity: 2, num_ms_combs: 1, mus: [0], ns: [7], ls: [0], ms_combs: [0], ctildes: [-0.20957430607857724, 0.3863950443323842]}
    - {mu0: 2, rank: 1, ndensity: 2, num_ms_combs: 1, mus: [1], ns: [1], ls: [0], ms_combs: [0], ctildes: [0.92059732510029679, 0.04035751688680559]}
    - {mu0: 2, rank: 1, ndensity: 2, num_ms_combs: 1, mus: [1], ns: [2], ls: [0], ms_combs: [0], ctildes: [-0.48752994446039988, -0.19170056340471031]}
    - {mu0: 2, rank: 1, ndensity: 2, num_ms_combs: 1, mus: [1], ns: [3], ls: [0], ms_combs: [0], ctildes: [-0.52596269573081278, -0.11455126859406915]}
    - {mu0: 2, rank: 1, ndensity: 2, num_ms_combs: 1, mus: [1], ns: [4], ls: [0], ms_combs: [0], ctildes: [0.39710096047341759, 0.10283683340324495]}
    - {mu0: 2, rank: 1, ndensity: 2, num_ms_combs: 1, mus: [1], ns: [5], ls: [0], ms_combs: [0], ctildes: [-0.24052460459649638, 0.020717193528580653]}
    - {mu0: 2, rank: 1, ndensity: 2, num_ms_combs: 1, mus: [1], ns: [6], ls: [0], ms_combs: [0], ctildes: [0.17228333884680527, 0.088491406207729592]}
    - {mu0: 2, rank: 1, ndensity: 2, num_ms_combs: 1, mus: [1], ns: [7], ls: [0], ms_combs: [0], ctildes: [-0.13746529027929452, 0.12005784034299238]}
    - {mu0: 2, rank: 1, ndensity: 2, num_ms_combs: 1, mus: [2], ns: [1], ls: [0], ms_combs: [0], ctildes: [-0.25272307814817579, -1.6769639984010991]}
    - {mu0: 2, rank: 1, ndensity: 2, num_ms_combs: 1, mus: [2], ns: [2], ls: [0], ms_combs: [0], ctildes: [-2.6774415689426894, -3.3446054695169152]}
    - {mu0: 2, rank: 1, ndensity: 2, num_ms_combs: 1, mus: [2], ns: [3], ls: [0], ms_combs: [0], ctildes: [1.754948932260278, -1.6241958807809165]}
    - {mu0: 2, rank: 1, ndensity: 2, num_ms_combs: 1, mus: [2], ns: [4], ls: [0], ms_combs: [0], ctildes: [0.40155045030679359, -0.13630961102507677]}
    - {mu0: 2, rank: 1, ndensity: 2, num_ms_combs: 1, mus: [2], ns: [5], ls: [0], ms_combs: [0], ctildes: [-1.7792424789193015, -0.17205280890055377]}
    - {mu0: 2, rank: 1, ndensity: 2, num_ms_combs: 1, mus: [2], ns: [6], ls: [0], ms_combs: [0], ctildes: [1.5232047317623214, -0.14791477901414576]}
    - {mu0: 2, rank: 1, ndensity: 2, num_ms_combs: 1, mus: [2], ns: [7], ls: [0], ms_combs: [0], ctildes: [-0.83424518114838242, -0.76871637685757521]}
    - {mu0: 2, rank: 1, ndensity: 2, num_ms_combs: 1, mus: [2], ns: [8], ls: [0], ms_combs: [0], ctildes: [0.62436312315508058, -0.4863455348062799]}
    - {mu0: 2, rank: 1, ndensity: 2, num_ms_combs: 1, mus: [2], ns: [9], ls: [0], ms_combs: [0], ctildes: [-0.1334337039811303, -0.53346506734233945]}
    - {mu0: 2, rank: 2, ndensity: 2, num_ms_combs: 1, mus: [0, 0], ns: [1, 1], ls: [0, 0], ms_combs: [0, 0], ctildes: [2.4054974142977774, 0.66008486490637019]}
    - {mu0: 2, rank: 2, ndensity: 2, num_ms_combs: 2, mus: [0, 0], ns: [1, 1], ls: [1, 1], ms_combs: [0, 0, 1, -1], ctildes: [0.67769165726842595, -0.32559196376669802, -1.3553833145368517, 0.65118392753339593]}
    - {mu0: 2, rank: 2, ndensity: 2, num_ms_combs: 3, mus: [0, 0], ns: [1, 1], ls: [2, 2], ms_combs: [0, 0, 1, -1, 2, -2], ctildes: [0.050178057048160953, -0.19424648203766848, -0.10035611409632192, 0.38849296407533701, 0.10035611409632195, -0.38849296407533712]}
    - {mu0: 2, rank: 2, ndensity: 2, num_ms_combs: 1, mus: [0, 0], ns: [1, 2], ls: [0, 0], ms_combs: [0, 0], ctildes: [-0.7417102075800891, -0.2075209163576634]}
    - {mu0: 2, rank: 2, ndensity: 2, num_ms_combs: 2, mus: [0, 0], ns: [1, 2], ls: [1, 1], ms_combs: [0, 0, 1, -1], ctildes: [-0.34412824834641853, -0.069531409638687036, 0.68825649669283695, 0.13906281927737404]}
    - {mu0: 2, rank: 2, ndensity: 2, num_ms_combs: 1, mus: [0, 0], ns: [1, 3], ls: [0, 0], ms_combs: [0, 0], ctildes: [-0.96080377546125828, 0.23267213980424126]}
    - {mu0: 2, rank: 2, ndensity: 2, num_ms_combs: 2, mus: [0, 0], ns: [1, 3], ls: [1, 1], ms_combs: [0, 0, 1, -1], ctildes: [-0.19101465077129381, 0.29625941772667164, 0.38202930154258752, -0.59251883545334316]}
    - {mu0: 2, rank: 2, ndensity: 2, num_ms_combs: 1, mus: [0, 0], ns: [1, 4], ls: [0, 0], ms_combs: [0, 0], ctildes: [-0.71285915607362971, -0.51502903910668141]}
    - {mu0: 2, rank: 2, ndensity: 2, num_ms_combs: 1, mus: [0, 0], ns: [1, 5], ls: [0, 0], ms_combs: [0, 0], ctildes: [-0.17559252755716315, 0.53340577654941701]}
